-3.313452073634574058e-01 -1.559130661978570753e+00 -4.864247694789344267e-01 -9.790365501863363962e-01 -4.018561050366290521e-01 -5.918066707863151726e-02 -1.239968514503121261e-01 5.865357499407574116e-01 -5.852402286219491323e-01 -3.125760380259475779e-01 -4.232381262763825203e-01 -2.613660614416619676e-01 1.275503945431680775e+00 -7.513626684046781357e-01 7.981707215541090639e-01 8.266098791620285491e-01 -6.470316750714252274e-01 -7.223801432443855974e-01 -1.096031038376980293e-01 2.184878551588746720e-01 4.036433524210684132e-01 -4.936204852574357059e-03 -1.222765677695405229e+00 5.668702491900480256e-01 8.726673385553607165e-01 -1.655168096169939540e+00
-4.840303840083230447e-01 -3.158376176967270799e-01 8.292030477959369539e-02 -8.657882144057007512e-01 -4.204837565361420615e-01 -3.409111051413702964e-01 6.900766325697121895e-01 1.621663442084443907e-01 3.360488380059334923e-01 -1.555372984347906717e+00 9.153170689098540092e-02 1.017374202973347908e+00 -4.721202511927525824e-01 -9.913918440468227899e-01 6.844315671074282514e-01 -2.472284864507988678e-01 -1.175104737445353598e+00 -4.790809815153831419e-01 1.112230856786433214e-01 -5.982559771044889674e-01 4.826023221059745349e-01 1.730866311908808297e-01 -6.540103232038031733e-02 -9.079201329473720605e-01 -9.861876609234559998e-01 -3.986646800933429935e-02
-5.592969062950230441e-01 -3.671718159507166290e-01 -2.119154915376728621e-01 -2.053502567919708033e-01 5.715720945373931050e-01 -1.192161370440780077e+00 4.123349121143573548e-01 1.009871656668806850e+00 -1.707200062854411948e+00 2.801351837002655776e-01 -5.231132721198966662e-01 6.549711201688210860e-01 -7.713887977994006162e-01 -3.281306335386899309e-01 -7.721257163132941304e-02 9.868203592021899118e-01 -1.111118615215566097e+00 3.759162039601656596e-02 -8.762934946663332170e-01 1.861619669979588110e-01 -8.368024262608633190e-01 -2.541863370873294059e-01 -1.701147129412479975e-01 -7.936568072518035422e-01 -7.505425607132203414e-01 2.436727157268868682e-01
-3.480131528146334086e-01 3.393635890847088721e-01 -8.845495689391764671e-01 1.069894037065800274e-01 -3.120738584911004754e-01 -9.008100002278839336e-01 -1.507864040083911616e+00 -8.010095056223944798e-01 -6.160374097427712137e-02 -5.022942687573920262e-01 6.575225705528473519e-01 -9.108338588738884578e-01 -6.936127481666443106e-01 -3.926931562221691041e-01 -1.566235140261691139e-01 -6.753968219373330806e-01 4.531813417040079228e-01 -1.619613879122784872e-01 1.238543587914100325e-01 -4.453445207173329368e-01 1.044654493418533781e+00 -3.496779735436532643e-01 9.237251200107134963e-01 7.524261354136625446e-01 -8.586683846904127337e-01 -5.560535997267781472e-01
-2.999444225144676235e-01 1.319430631827291645e-01 -1.566066318945046609e-01 -8.038839972326964345e-01 6.403507857917355162e-02 -2.355121427380564847e-01 -5.374293753569331367e-01 1.241263956005511787e-01 -6.446541552627289562e-01 1.031259178567124346e+00 -9.133582145622301529e-02 -3.783924929049825581e-01 -2.473592430569385436e-01 5.551781499235139972e-01 -1.906446621760019555e-01 -7.919103128074796993e-01 -8.163596873003802212e-01 -2.276450165569759154e-01 -8.146008872748432550e-01 1.468004455155972332e-01 -9.712960832920990439e-01 -7.030914576538602745e-01 4.406753577231954933e-01 -2.375310737041846088e-01 8.582271470768687571e-01 -1.299414731625039565e-01
-3.902303706851704135e-01 -9.305764966041797648e-02 -3.754235048556971849e-02 -1.364481390085826806e+00 -1.356229747677365927e+00 1.779223815247879259e-01 4.959987949995868506e-02 -5.983626832736520518e-01 5.136310347973135348e-01 -1.895674042398775294e-01 5.350464465670528025e-01 -6.883037987171776173e-01 1.084864787949265524e-01 -6.485498240881586440e-01 2.759965491545517957e-01 -6.974460102130979333e-01 8.696219019975591769e-01 -8.027852842237699349e-01 6.256892537995204506e-01 -1.201500053460988759e+00 -7.883342251250281540e-01 3.608865245670120903e-01 7.987134786804310771e-01 -1.230102798413691634e+00 -6.520022023346918605e-01 -2.459300579149768240e-01
-3.471243253133243223e-01 4.154504477352892744e-01 -6.165613827937371783e-01 7.342999203690444565e-01 6.392682517040354506e-02 2.718016824367017886e-02 -1.890197194041681461e-01 -2.459001046336081187e-01 -8.247167255484830761e-01 -3.768588449355313452e-01 -4.842467306522158510e-01 -2.176765217382836959e-01 9.978260544842112445e-01 4.407318560659522211e-01 -9.215499522577796920e-01 7.130118140756328549e-01 6.854884877037141777e-01 -9.367119759526166822e-01 -6.799433147764049057e-01 -3.426048982969989165e-01 7.255754531858928102e-02 -1.222455555909813141e+00 -1.696704038913357859e+00 6.512932080641999910e-01 -7.019954798902203752e-01 -3.595517328913682142e-01
-4.379109363452921566e-01 -1.578589955520972365e+00 -4.409709580667250765e-03 -6.161019608106144130e-02 6.998235072627576603e-01 -3.339983047656312765e-02 3.246074013747754505e-01 1.351355884456746370e-01 -2.230454924430577690e-02 -2.306839298066064303e-01 -4.035215455992200995e-01 -7.784133747566347461e-01 -7.338646773422198288e-01 -1.178114543566338934e+00 -1.674293998282256613e-01 -1.110723082082224700e+00 -5.698927137759228767e-01 4.191032784128165822e-01 6.085726890893066177e-01 3.612142830797121507e-01 -1.213071876919588066e+00 -4.839583774397817617e-01 -5.415119892897254372e-01 1.767120926937236491e-01 4.454147574736841975e-01 -1.171810864192717322e-01
-4.800904775210509401e-01 -2.850750023970537450e-01 -9.587424834688214048e-01 4.850029906283042647e-01 3.100769058634952891e-01 -1.213197593772900318e-01 -9.610327776154053980e-01 -5.157323772203838974e-01 -4.697935565312675865e-01 3.371653563369199635e-01 2.858281723380789452e-01 -1.013217912721974701e+00 -5.690632877784482790e-01 -8.171159623802713712e-02 -8.665948754031541634e-01 -2.456456559274909912e-01 5.720278636164362052e-01 5.716169057692189331e-02 3.721584434190332025e-01 -3.007192583993941737e-01 4.044310449564558207e-01 -9.493611962719786801e-01 -7.783031153447326211e-01 4.392806147212029444e-01 -4.125262895170884181e-01 -1.646582536208088532e-01
-6.253872693435199581e-01 6.483508594085631849e-01 -1.194490790118492435e-01 2.281948404763845251e-01 -9.940626141830363194e-01 5.010150351357088860e-01 -1.598584452973065007e-01 -1.233065844502266417e+00 4.331996653068314052e-01 -7.593000082267107320e-01 -1.068043013303589639e+00 2.284952940981108127e-01 -7.172220199296774901e-01 7.343466399948583856e-01 -9.533457595330566692e-01 -9.183396408892677831e-01 -6.029448079574590835e-01 -1.589167899234541492e-01 -1.709580820513082244e+00 5.496000832330119046e-01 -1.158005537984732269e+00 1.752686339395308490e-01 4.984772438800231242e-01 -1.265790787932203010e+00 4.082451680279536310e-01 -3.659563348110538711e-02
