2.193797505075153476e-01 -2.033733188236758541e-02 -4.898288056798812823e-03 1.017473348424460799e-01 -6.805397405296015334e-02 1.018652384436043688e-02 -7.970062432824751020e-02 -9.911631077226031039e-02 -2.233247541204083295e-02 -9.960634443029708907e-02 -1.087442685813817941e-03 8.698023007113857286e-03 -2.561020433126724380e-02 8.931735760606061836e-02 -1.619923137555751361e-02 -9.727563672785088933e-02 -4.535651081479960718e-03 9.679251493158354258e-02 -3.292703925003125781e-02 -4.829069056551565150e-04 -6.736511631755653928e-02 -4.865699541177125748e-02 1.056368960949258251e-01 -8.487594353097718813e-03 -3.174374899959789970e-02 -3.808457530157362270e-02 -7.254400014304733524e-02 -9.617948971516708523e-02 4.240667560794118829e-02 -9.999117464298096572e-03 -8.216113295981779252e-02 -5.596034500560182617e-02 1.043553031706129369e-01 -1.006895348926124395e-01 6.226016582879592004e-02 9.993576889451612211e-02 4.280598947061806797e-02 1.833998631107582739e-02 4.627655627349364781e-02 -8.071524819975549325e-02 8.437744039174607802e-02 -4.513420516706848767e-02 -9.320551420351810834e-02 9.629709397740573995e-02 -5.542312286365753266e-02 -6.012811075010655176e-02 -1.986825701500313443e-02 -8.027410750638182269e-02 1.059307253610296679e-01 1.485285865732195038e-02 -2.312956256998189349e-03 -8.450654493136269818e-03 -6.091037950584819033e-02 -1.869814800922690867e-02 -1.000210708101375301e-01 -9.647902473653591215e-02 1.089468594922454736e-01 -1.577291952437904002e-02 5.988747654703230339e-02 -9.908948965241710927e-02 4.535762202780033864e-02 -5.507732268338660225e-02 1.977683016929348767e-02 -6.552529887971335343e-02 -5.407000217245726270e-02 4.264580395995574980e-02 -7.891860380539851560e-02 5.573404388363149831e-02 -9.002531324697082837e-02 -8.901090953148607307e-03 -2.964020818778760266e-02 7.871358726415708662e-02 1.077382982168915704e-01 1.439822860540450160e-02 -1.611932539864800035e-02 2.646984702174989823e-02 9.915726387059223268e-02 1.720475968684130608e-02 3.808683236987626258e-02 2.552159866253634474e-02 3.765777919261875922e-03 -5.489938622990252898e-02 -5.171138107802977085e-02 -7.905852906433170901e-02 5.051251292542100445e-03 3.244260922314178008e-02 8.079276677119288930e-02 -2.583733977109545915e-02 2.543002662454920196e-02 3.203919914256600499e-02 5.675707346485302923e-02 2.936396431244779962e-02 2.030243219303754509e-01 1.864413038967062120e-01 1.529174351146312671e-01 1.039060783191915471e-01 -3.793180425930103156e-02 -8.574111181878929511e-02 -4.771301090728913286e-02 -1.467778463274956036e-02 2.362712237456514666e-02 9.738109741729640556e-02 -3.085723454120382556e-02 9.406263475790174744e-02 6.838322773699072321e-02 1.225205924733015345e-01 9.919429850276093030e-02 1.181990401722065598e-01 1.158250129978379561e-01 7.886421837163369586e-02 1.073596139567983415e-01 1.549637719527535706e-01 2.639670041820766366e-01 2.010694426436333559e-01 3.928098172066155774e-02 9.759895813848205870e-02 -1.797388578546763038e-02 -1.256560012694742101e-02 -9.452881562248193967e-03 1.038012344208344567e-01 1.139710008342498249e-01 8.173453322657524278e-02 4.786273375812443581e-02 -9.723898501012856466e-02 2.531108258195479202e-02 8.538569165534005967e-03 4.002955522477626149e-02 -1.779165679834937910e-02 1.050139953558869646e-02 1.599371520424286708e-01 1.932545546280358684e-01 2.757535899100627130e-01 2.779901206848450768e-01 -3.004544665232120396e-02 -1.562507843035013458e-02 -1.518988854695442481e-01 -1.196678723951259266e-01 -6.755478948428517670e-03 8.729615057318836080e-02 1.303152949827168783e-01 -2.206041787173945376e-02 -7.843549789305913345e-02 -6.089324047723383704e-02 1.007758100737349144e-01 -3.106673322188633485e-02 -8.817993535319186213e-03 8.394020898719065094e-02 -6.605863696775887695e-02 1.192564882030070494e-01 1.271520658294295336e-01 2.697829740139418009e-01 7.279708878794483029e-02 -2.215534117857213044e-03 -1.479030422682019452e-01 -1.958335475914939339e-01 -1.623239637129816615e-01 -3.671089898359013864e-02 7.747133767641976865e-02 9.447107567014238760e-02 6.803172722155730046e-02 -5.029329466331013826e-02 2.539345225013166230e-02 8.485376976017600104e-02 1.249060333978437021e-02 4.622294909371409827e-02 -5.811214667393121286e-02 -4.514282499619315381e-02 1.746575834853148976e-02 1.188696927031434453e-01 2.051212318745582741e-01 1.114264785267092273e-01 -7.211562119907787005e-02 -2.021959862428585886e-01 -2.526512952569343606e-01 -1.084193634977956844e-01 -2.269647303438716845e-02 -1.107062773025064076e-02 -7.951045437186554654e-02 -6.684143219100051325e-02 1.543362017797616781e-01 -1.519933959975398007e-02 -1.078493595816813755e-01 -7.566646520936133602e-02 -1.720966635389689983e-02 2.515966592758479142e-02 -8.754385625343283350e-02 -1.356592206747187779e-01 1.819539941124483362e-01 5.968507652957837778e-02 -1.609286156028081061e-01 -3.019074968099586531e-01 -3.828737039320462832e-01 -3.342659663123661029e-01 -2.453436512414038095e-01 3.705341067966675273e-03 2.254202841469487573e-01 -1.266593765133540439e-02 -9.160836034706899833e-02 -1.413619170356854582e-01 8.934442863279105917e-02 -9.249510042548129973e-02 9.938238105736599270e-02 -1.062230028157093026e-01 1.806664835332606397e-02 4.860945681568616672e-02 -1.340523524205531891e-01 -1.712187668896321124e-01 1.540576027859759389e-01 2.023957559199553863e-02 -1.730412580471669126e-01 -5.070090311588807408e-01 -5.208215203067213528e-01 -3.697358711145748433e-01 -5.516713179107538001e-02 4.524009342805943718e-02 9.411099979230913570e-02 1.503917720765981202e-02 -1.761084986174233091e-01 -7.099195459235102534e-02 -1.135002869481718628e-02 -1.016489180362340344e-01 8.415310174032877583e-04 5.495276557036353482e-02 1.157539915278772702e-02 -5.184876623530215028e-02 -1.061209434419346787e-01 5.539664192708574492e-03 7.919562302907269535e-02 8.032719271341740019e-02 -1.939896702597525002e-01 -1.586333167990642001e-01 -9.115944723719363041e-02 3.940388740790920497e-02 9.517390760336905120e-02 1.484231887630989288e-01 1.346032696309217014e-01 1.263979600839767181e-01 -2.037521339625038286e-01 -3.398045819856565508e-02 -2.430927005084730294e-02 -9.053745211005041760e-02 5.196079360418837806e-02 7.923713679731943238e-02 -4.788203327804529952e-02 -5.854459208779833751e-02 -2.529459324239953788e-01 -1.665948471722941693e-02 2.644616835549606360e-01 1.667039524933416339e-01 -4.695538704272085584e-02 6.608491265197817544e-02 2.246791708631431517e-01 2.347062322426310133e-01 1.730121571438835715e-01 1.839098748504334191e-01 1.054396711822672278e-01 1.390554909683438221e-02 -1.475339694629397291e-01 -5.551475911275295660e-02 -1.335856118927324782e-02 -2.233940541378405878e-03 9.733856874247159841e-02 9.782315878031669354e-02 3.341584032519884229e-02 -1.620358894673324876e-02 -1.105841402670971613e-01 -3.843915870314389832e-02 1.880596143727074621e-01 8.828118447873486985e-02 -6.483711747405018766e-02 -2.965914824018871243e-02 2.626856934797032750e-01 3.004960898788556767e-01 1.391115089315562159e-01 1.510678108990612389e-01 1.015890846747475873e-01 3.923609839032914104e-02 -4.163910800987764144e-02 5.215307396625258607e-02 -4.459320470980747408e-02 -8.499127024019920151e-02 9.812683270168794103e-02 7.067633381560306516e-02 1.275799188674997808e-01 -8.515706318034170497e-02 -3.837193124288026513e-03 2.087597977524582177e-02 6.793405037756654330e-02 -1.767199385467848466e-02 1.551741761079122178e-02 3.032038921297644518e-02 8.571234346512157654e-02 1.220945394614803697e-01 1.809431475084630203e-01 4.553943363794361182e-02 4.218684832180317340e-02 -8.399491580121486167e-02 -2.397982628839584462e-02 3.887568411198841223e-02 7.713167510145983730e-02 2.030178231970778194e-02 -1.005712003368483126e-01 -9.184921144124171336e-03 1.204422135863661980e-01 -3.829163146248823479e-02 -8.087457099567355034e-02 7.520850530505622522e-02 -1.345181604321362030e-02 -7.607311685363521425e-02 -3.423663637301167101e-02 -9.842456798772374060e-03 1.148927189727979581e-01 1.183282601776943221e-01 1.169250555404149905e-01 -5.006642681731894584e-02 9.983946076582263240e-02 1.018784021464736178e-01 -1.420942834784794041e-04 -3.400666366972684290e-02 6.475318077614539147e-02 -4.146513196582478356e-02 8.239252117895039251e-02 1.765971656357456787e-02 2.369967490647433006e-02 1.109922426948491692e-01 5.966461311280105845e-02 7.620682747551663083e-02 -1.529004952366312328e-02 6.639204545156629153e-03 -4.445706413126809114e-02 1.139419078891990428e-01 4.527872928822904847e-02 1.590321024518837056e-01 1.474895321629361711e-01 -1.655861770872755698e-02 -6.833608513444363111e-03 3.366744717192514391e-02 8.735601082690792538e-03 3.829799514589905113e-02 -4.740772197952776434e-02 9.309579890193468710e-02 -3.007349062896020123e-02 -2.918347154267693366e-02 -1.048284740493360678e-01 -6.739408593124980584e-02 8.883895549469797426e-02 1.071160903832082817e-01 5.972850409058641508e-02 6.154603988379971774e-02 -2.198459428482511108e-02 6.740988153843896491e-02 6.959909394732279042e-02 2.266225501145960677e-02 -2.583789673917806073e-03 2.002795334669632554e-02 -8.041175108013610962e-02 9.438721464339457079e-02 -6.950528000125118233e-02 2.057200430703548868e-02 1.014973398143689531e-01 6.766914885743441355e-02 -2.298527680908771936e-02 -8.435397382441951752e-02 -6.977287287911754232e-02 -8.742518659024148264e-02 -1.054954235287807324e-01 -2.567267993481281083e-02 4.719977330324638676e-02 3.801586244883845694e-02 1.053534773210131337e-01 6.494222433961326091e-02 4.827913516499586499e-02 6.659162504080927414e-02 -5.974956357015923786e-02 -3.857136096549806503e-03 -1.611085757827805318e-02 -7.734916126305382833e-02 -6.542534078776800210e-02 -7.001742909785244051e-02 2.609642431798831277e-02 -7.614103167433670938e-02 1.066450318295580485e-01 9.750140448001587412e-02 -3.326676992620842058e-03 7.744507120653194854e-02 -1.016878211330416587e-01 -2.671246067552052184e-02 -1.494455882021360031e-02 -2.259532311753668574e-02 -5.560226966522523878e-02 -4.251678780660441727e-03 6.107032911435067435e-02 -3.023605879258036214e-02 1.128423929352852413e-02 -3.571320315323444489e-02 -6.846823133534009342e-02 7.491709972942123263e-02 -3.624316368983644676e-02 1.096293036313160385e-01 -1.572459478368825464e-02 -1.081141792125862311e-01
-1.014112985931779065e-01 -1.319030656839272758e-02 9.962891131445553161e-02 8.551373114756560812e-02 -4.080394003610654519e-02 -4.174341248949822031e-02 9.787628688390681564e-02 8.610668349991995596e-02 -4.065519000257888926e-02 -1.087611140434984053e-01 4.813782857385413144e-02 -3.679814767979881773e-02 7.750398153727354120e-03 8.892205491202603840e-02 1.012909762217810705e-01 6.496819457897984318e-02 -1.022776268813098133e-01 5.409067164584691750e-02 1.027646419090972318e-01 8.820917999167306178e-02 4.110693212935691981e-02 -7.414011607108071666e-02 9.834766726859088537e-02 -4.746344740388418887e-02 4.782513550443494993e-02 6.156204247444704153e-02 3.383970115137812512e-02 -1.338567016187023825e-02 -2.407729622288862226e-02 5.371413783580569756e-02 4.170716556636281519e-02 8.607460206309756889e-02 1.957546798953088349e-02 -6.867568661833947652e-02 3.951935849782185761e-02 -2.766714013168311906e-02 -1.088737816802510909e-02 -4.674166261014831708e-02 4.406049352615330761e-02 3.462832866093897705e-02 1.098631385363274676e-01 3.773332141087290537e-02 1.811321988039827843e-02 -2.519195516872960172e-02 6.716929564860926738e-02 -2.008088848109099156e-02 5.770836100288264520e-02 -1.116461889302105409e-01 -1.014118980508049023e-01 7.472201040271753136e-02 -1.527346590133450872e-02 5.014937915775646848e-02 1.070548209392820638e-01 9.639404933801602737e-02 1.150023097160452618e-01 4.298865758967510470e-05 -1.000112016095969780e-01 1.093718644040859028e-01 9.397712505833870356e-02 -3.674466986029332333e-02 -7.870669275002691034e-02 9.055550704699100173e-02 -8.545641539108804474e-02 -1.084484955463961842e-01 -2.569628649978049698e-02 -7.422646411044674097e-02 6.093140369194025713e-02 -3.422344316513099144e-02 -2.511610920645701225e-02 6.757877412417286067e-02 1.761155400559609105e-02 -9.403422662650415265e-02 -1.218347750721775341e-01 1.105387665258033281e-01 8.898975674007665593e-02 8.557932791618062807e-02 8.069351323381454555e-02 4.744162802666308798e-02 -7.397453518276175810e-02 7.738889483078452425e-02 6.502770082317828326e-02 8.650927753355072691e-02 4.056982944476575370e-02 -5.159820382993109827e-02 -1.056709797789943117e-01 9.955559196700614066e-02 -2.513165133189860720e-02 7.645501389559401784e-02 5.593310469679258629e-02 -4.759094534881060101e-02 -1.253518930847330633e-02 -6.543376551712316858e-02 -1.248942186572470636e-01 8.922306061986989834e-02 1.823142388688425708e-01 1.600636620106808683e-01 -8.654994839318180117e-03 -6.109920860862293884e-02 -3.414038693324614182e-02 -3.959702162715608709e-02 -7.985095873257097923e-03 -8.655457702920263396e-02 -4.500592559941642146e-02 5.284338575725375242e-02 5.886803232093550803e-02 -2.846111869283760379e-02 7.783244950220979952e-02 -8.292375916375714293e-03 -8.466937662795762098e-02 -1.423265413454041783e-01 -5.978949205545047892e-03 -1.206255624538516147e-01 4.929946213332615790e-02 -5.881698476529356734e-02 1.355514110852174270e-01 6.798159957078488136e-02 1.408413162624016501e-01 1.138336348160178535e-01 -1.077508301321035006e-01 1.872643014708738271e-02 -8.320045647628147856e-02 9.372784678452496243e-02 -3.199300665838674534e-02 2.896677816140221656e-02 1.085236914339136743e-01 6.793814665557400267e-02 2.425471647659900934e-02 2.349061072786544010e-02 -5.580976729051401186e-02 -1.613208739727065855e-01 -8.152312435149626502e-02 -1.579112698371078760e-01 -7.338662715201557663e-02 1.752977268833900981e-02 1.430925396375005154e-01 1.630551243725093247e-01 2.212664065697977911e-01 6.952611745603623494e-02 4.034715206895433254e-02 -1.310431032559516984e-01 -6.516480624600394511e-02 4.053818591191661602e-02 -1.136808297188068861e-02 5.375294719376086383e-02 4.570973869897661940e-02 -1.597792057895052256e-02 -2.083352008447372089e-02 -2.731049901255394943e-02 3.164747112168381921e-02 -3.129354484585134683e-02 -1.320949363239167507e-01 -4.184573719521769014e-02 4.250232570906162244e-02 4.846673373769638110e-02 8.423507932387643005e-02 1.003324080448291106e-01 1.388469706656273450e-01 6.258729243561921007e-02 7.993212735995333662e-02 -3.489744784370543695e-02 -8.551688605820872979e-02 -1.070255005281467581e-01 -4.854416269458938088e-02 5.404675028873460324e-02 1.515390744159680614e-01 2.744988634951987805e-02 7.085621060672649130e-02 -1.078617841849796449e-01 -2.818887640569995787e-02 4.158028948588000928e-02 -7.935710014918062605e-02 2.489075548317580891e-02 7.728326495519681483e-02 4.620499100410412063e-02 1.526253154749402652e-01 1.842212721250309215e-01 1.929031412636826037e-01 1.549313731065415922e-01 7.869100674995985201e-02 7.909983414530900869e-02 6.803340616419814579e-02 -1.049014396060647253e-01 1.081065068295084808e-01 -5.854096751556044781e-02 6.273489792488835814e-02 1.385113549897749041e-01 2.521647654519152109e-03 5.251708279296976589e-02 7.132239480436415591e-02 4.683694568226214050e-02 -4.905119147512368438e-02 -6.176810352709134755e-02 -7.972769766522908030e-02 9.499912464667920053e-02 4.613370057668646218e-02 1.339464384085302384e-01 1.453064059120330598e-01 8.517114796747277117e-02 -5.066992778588998159e-02 -4.271728172360148706e-02 6.624202168454385031e-02 1.693246711503365370e-03 3.840472716180445834e-02 1.509387204391000881e-01 1.633494121035158064e-01 7.367087247240432582e-03 -8.428800755288318181e-02 -1.699431496064604530e-02 9.313090802456845674e-02 -1.172889525714814890e-01 -1.470365544383446521e-01 -1.353326584028300972e-01 -2.671503167018306202e-02 -5.575213178402041447e-02 -5.095216764268955395e-02 1.209527663111741314e-01 1.261557727220714298e-01 1.534333417719501158e-01 9.901329869290120822e-02 5.064448241397748185e-02 -5.820331979634258551e-02 -1.486963741517883728e-02 7.337142531044717371e-03 8.315603654342565432e-02 1.717326412802383240e-01 1.444623765232058432e-01 -4.894419726088403838e-02 -3.470381434849006963e-02 3.800043247387983186e-02 -5.271952837645238477e-02 -3.304709766672417337e-02 -9.997378546479832040e-02 -2.553548904445041012e-02 -1.808908716961868737e-02 2.969263999449972546e-02 3.351248488686917743e-02 1.705412600047668537e-01 1.091748391706501009e-01 -6.557856986787642672e-02 -1.115329620148884232e-01 -7.931452640140213006e-02 5.547151969217080023e-03 7.272354169976158467e-02 1.359271472130892944e-01 1.411488156330734101e-01 2.267049756666912261e-02 -7.130931797811093306e-03 -2.265858536947993121e-02 -4.911069751116165644e-02 -9.336644797499253634e-02 6.089542963995340022e-03 -1.790734745510942361e-01 -1.537361450494119930e-01 2.072177041986015059e-02 1.334524004924871610e-01 1.883170769848937776e-01 9.200904762115404145e-02 9.305007355653166501e-02 7.638778003181602438e-02 -8.797593537074234471e-02 6.644717269510649112e-04 -2.465331639668568234e-02 4.233298394863280883e-02 3.579470671403209292e-02 5.409616919234965654e-02 1.150965021271145444e-01 5.426683071424043964e-02 -1.147749668550673563e-01 -5.680971636693656762e-02 -1.099382503126474508e-01 -1.205950696540430411e-01 -1.505168817288636829e-01 -1.226437479043020196e-02 -3.619354905546635220e-02 1.575500952359653872e-01 1.818290324221674137e-01 -1.759093148343885207e-02 -4.314798236022555911e-02 4.717999371520599505e-02 -3.614187930900989582e-02 9.449397470920661846e-02 4.212723715078063418e-03 -6.303877738652736984e-02 3.023572994949508957e-02 -2.001410557110936891e-02 1.070190890809611661e-01 5.188005155802947327e-02 -7.605144871889692182e-02 -9.567900531505217632e-02 6.950022840092327792e-02 -9.895444693362535904e-02 2.390593278099636954e-02 1.016301910842662831e-01 1.848071646638455579e-01 1.100936886680101839e-01 1.126475990832079277e-01 -6.592301910404326643e-03 4.917498015219370910e-02 -1.190432483255484675e-01 7.578144221431304395e-02 5.882010067736053588e-02 7.976150144913968232e-02 7.060994755539098944e-02 -4.762848175427060460e-02 1.147700089355650765e-02 5.737781998559729479e-02 -3.178356607272299350e-02 1.036543928266937947e-01 -9.334269171653891695e-02 -6.819023648455709019e-02 -4.921007687031375699e-02 3.992770025199347816e-02 5.247761872838100500e-02 4.095597843560662421e-02 7.296588627388944648e-02 8.990541548215416623e-02 1.057777954297310918e-01 1.641377701572574108e-02 7.803020851205136332e-02 -6.286066585080569979e-02 -1.726336209609993441e-02 7.782763975226514308e-02 -1.110086977563124327e-01 7.274677684336054717e-02 -8.846616910849200432e-02 2.408257054445945167e-03 2.491961842558513759e-02 1.314776118273218442e-01 3.262472741747615007e-02 1.058918600792827652e-01 9.352957094109629055e-02 6.001787002085041262e-02 1.288446288732567335e-01 1.743434711451435177e-03 1.380850577270119062e-01 8.284352856858619163e-02 -5.308297595465298613e-02 6.548239046895101834e-02 5.389682325647588562e-02 -1.113953479391828760e-01 2.683869261284059678e-03 1.026597146468150590e-01 8.772058683995506700e-02 4.625292729745608677e-02 2.605281992808454114e-02 -4.586988370798654457e-02 1.130166671797681183e-01 1.126291237266723033e-01 9.695055595766169376e-02 5.789131489886530785e-02 -8.662432274552442357e-02 -2.626243270340348004e-02 1.111121291999002114e-01 2.943093629682979120e-02 -6.176318208005392163e-02 5.758908786287992264e-03 6.335042394171057356e-02 1.099447901753021345e-01 -1.292092994697512836e-03 -8.527815019164167176e-02 9.255130766208104209e-02 -1.008622264862901186e-01 -1.373309111793114337e-03 1.036633744689329367e-01 1.371080221916824542e-02 -8.222396389761005286e-02 -6.127682460354584582e-02 -7.968088301381934246e-02 6.109026540362064855e-02 9.147003672954440168e-02 1.605954280641944468e-02 7.636957246533079835e-02 -1.305565534001429384e-02 1.999577072173981413e-03 -8.815199808271331761e-02 -2.204500369555875347e-02 -2.146111397008051980e-02 -8.507391093553924588e-02 -1.805018383899903087e-02 -8.848448659865702781e-02 -5.299034406781340245e-02 -2.388777139135234845e-02 4.112686568065180431e-02 -6.743664358271043990e-02 1.037929339952253505e-01 -6.805871565824087033e-02 5.256888994425956002e-03 2.872951179262138097e-02 -7.819711431708765981e-02 -4.360586569414231367e-02 2.042180116391536376e-02 -2.266750522215431676e-02 9.450294417056014085e-02 -5.701895049980681973e-02 -2.327271754649253357e-02 5.252637590335979684e-02 -6.609467662289507384e-02 -9.138367532790039882e-02 -1.660467890576497810e-02 9.921313207673257417e-02 -1.002410560573838427e-01
-8.630435629042898515e-02 -2.279344494322496639e-02 1.701479856998076162e-02 4.666762774515534340e-02 9.780856769918990640e-03 -2.874743660172447007e-03 9.985547561475748013e-02 -6.134737433276025304e-02 -1.382977568509254941e-02 6.044594358116189836e-02 -5.331494360570161739e-02 6.169393443852645015e-02 3.001101701098133831e-02 2.525882363172202161e-02 5.140930697944350036e-02 1.714726958396672191e-02 -1.087781772560758448e-01 -4.877833302039304153e-02 -5.795285927118903890e-02 -4.295378499928372007e-02 4.396517719826121412e-02 -1.296621965779579805e-02 8.307439974190572451e-02 -3.278610639150176392e-02 -5.107416323098357136e-02 -3.224777401425432677e-02 5.523903836680230106e-02 -2.165395262986484493e-02 7.598446749222795282e-02 4.039436258914774758e-02 -7.516097947463587503e-02 6.925814400168241181e-02 2.183376290264452124e-02 4.144139397651485442e-04 -1.046216602980629823e-02 7.766025665584341819e-02 2.057527289286100944e-02 8.620576804533030060e-03 -1.093264328894624354e-01 -8.228726221795194806e-02 -6.034982704272569276e-02 -1.080195951586845893e-01 2.028293522284532746e-02 3.425424067124798605e-02 1.897799604010861479e-02 -5.458167578801185332e-02 7.015432203390672972e-02 -9.502798489666088033e-02 -5.671433435724565486e-02 5.433029168595168018e-02 1.084412007590325466e-01 -8.103949653819846055e-02 1.693924608722001054e-02 1.031123903122289770e-01 5.599414319040315474e-02 -6.078246842082946078e-02 -6.267472454466821441e-03 -6.607615549494150198e-02 5.368085183887892631e-02 4.807817426301048275e-02 -4.563408256533049712e-02 9.256384083401741902e-02 -1.095026028005975649e-01 -4.420431974607037101e-02 -1.808973590070428114e-02 2.276078599591269125e-02 -5.180703658291690300e-02 6.611076570876486813e-02 1.218119454998274759e-01 4.898174253709008247e-02 7.835222904763900278e-03 8.759782824181124028e-02 1.467750551211502441e-01 -8.591146827719968460e-02 -1.067125080811939658e-01 -3.281131851788500475e-02 -1.191056459991309512e-02 9.045276231446673643e-02 -7.359729062328662641e-02 6.349423705997639389e-02 9.449160041282909234e-03 9.981851849442612001e-02 1.013356549506093524e-01 4.817694953121036405e-02 -6.052877823997530882e-02 9.807949123020275051e-02 5.706773971410423335e-02 4.995207137500104477e-02 3.967295796695208959e-02 6.195968173356231762e-02 7.132274303347692357e-02 3.354994541713950118e-02 1.183743737598392382e-01 6.416997216371372881e-02 -7.153844082880952970e-02 6.625216056639926000e-04 -4.448460319631245691e-02 -2.346683365220245815e-02 -1.389615014066815715e-03 2.808841219260199001e-02 -2.585515886369210009e-02 9.180170974913708093e-02 6.501292537878017308e-02 -8.477026968923143113e-02 6.781661819584859641e-03 6.694409107094745348e-02 -5.129173755075996932e-02 8.327257324251260973e-02 1.336917737446411958e-01 9.502931879174497665e-02 1.922167063662452435e-01 2.171035340557552207e-01 1.729487905485576349e-01 1.079277214204229715e-02 -1.375537301174564464e-01 -3.534047327272054478e-02 -1.523074932064757969e-01 7.612840320988462084e-02 9.499445141376507140e-02 -4.083215783809137495e-02 -3.776081029601479830e-03 -3.315477432955719200e-02 8.864272955388820263e-02 7.760534968702366421e-02 -1.130944233449921038e-01 -1.043998888438840561e-01 5.749669542313673443e-02 1.346223556964378232e-01 1.664497364106462263e-01 7.572247961574864183e-02 8.706214725086407202e-02 -4.955495089995019808e-02 -8.725213783151698765e-02 5.808475058736770232e-03 -6.135827293976495872e-02 -2.456785457139586126e-01 4.505140209484614217e-02 7.074906594990112464e-03 4.292592441943138271e-02 1.014325698931217712e-01 -3.521932582187393274e-02 -1.079481216365335422e-01 4.432054755788273487e-02 -1.203202613844389091e-01 5.682626731158474387e-02 4.158874662345948131e-02 3.429524766403633379e-02 9.501917205724873250e-02 2.228286463338923495e-01 -3.312044682175481480e-02 3.651401866815990466e-02 -1.540514142277149834e-01 -2.905356798068110119e-02 -1.748868668206828014e-02 -3.102230734327597328e-01 -2.029845636199218983e-01 -1.225307257303184100e-01 1.302789787059775162e-01 1.851061378354724729e-01 4.258385705994326836e-02 2.387442068537985740e-02 1.506729129251148207e-02 7.192726847934732826e-02 -6.447360350017408703e-02 -1.011977261503293896e-01 -1.061401106316200299e-01 1.079757405642338269e-01 1.468931740869249547e-01 1.252767020280935173e-01 -3.314468170377067591e-02 -2.108243012677964989e-01 -5.225338852735857131e-02 -7.349135603123707616e-02 -1.374386266464112938e-01 -2.446114380396461896e-01 -1.876689727447676814e-01 -1.453240606887356949e-03 1.450446239425403072e-01 8.662942975401394241e-02 1.874975354498201741e-01 -1.055558690111848934e-02 -8.845807418638224062e-02 4.593854078246412814e-02 -8.644997066430537905e-03 -5.631342356579645270e-02 -2.292295170072408683e-02 6.442295855980842423e-02 2.742057476202934205e-02 7.229278845716724522e-02 -1.371101480573431834e-02 -1.412663911154798391e-01 -1.371129343472588524e-01 -2.854244997608879619e-01 -2.760198323254449693e-01 -2.473812272462830864e-01 -1.986180900987358777e-01 -1.014883487990308752e-01 2.154136780114057348e-01 1.963643930269549920e-02 6.089055507150181040e-02 -9.676613488835689170e-02 2.780751132663763017e-02 -1.151582444462417171e-01 -7.112647136096468536e-02 -5.431324327985530970e-02 -5.390986380955097024e-02 1.498575978697024580e-01 3.133200271156690031e-02 -9.245714337033594798e-02 -5.025105991662559557e-02 -1.118905065302582269e-01 -2.444050096564741592e-01 -2.240041169214032624e-01 -1.170417410759660853e-01 -4.616699361156482301e-02 -2.080985359254632350e-01 6.600717310350015521e-02 1.353592811299319243e-01 2.865217398806979565e-02 5.341850971058349079e-02 1.046602198488681967e-01 9.242402036772702500e-02 -6.488192662528848020e-03 -1.141570928752308894e-01 -1.520603599145825546e-01 -7.982817452420201687e-02 1.647937596432080265e-01 2.078571297668839468e-01 3.339621366567745164e-02 6.628016100871268745e-02 8.656090251798535806e-02 -9.012534239280389770e-02 1.365102733830978743e-01 -2.278818212024728666e-03 -1.602513443198921306e-01 -1.674055485461347081e-01 -1.149723254493476288e-01 9.840864295003727558e-02 7.215285623713117713e-02 1.442199127748955145e-01 -3.408245190123687651e-02 -4.462786958614441135e-02 -1.083047970947475236e-01 -1.019739926430090204e-01 -1.398523030017467250e-01 5.005544286030946810e-02 1.549768499267719646e-01 1.693151890495273870e-01 3.478537252560537918e-01 3.518977526632595110e-01 8.089004192042516250e-02 1.839096338811426201e-01 1.077730331937541419e-01 5.804803208176350510e-02 -6.493404594450970235e-02 -1.623398079913163095e-01 5.580404789145596012e-02 4.489782426771832258e-02 1.517508866854116734e-01 9.914012853724707419e-02 2.096522929734452242e-02 1.133787885977761423e-01 -5.856288321936801988e-02 -8.881869045364122750e-03 -7.242240263276998602e-02 -4.294469081152665207e-02 9.586547092160899175e-02 1.764859237797685998e-01 4.250776618552810082e-01 3.550710550684617051e-01 2.021712717253358882e-01 -3.409817463776531471e-02 -5.761264540513173771e-02 -9.305424524832735245e-02 -6.268880968798291875e-02 -1.930449799996678539e-01 5.553796715837911596e-02 7.178440158681162475e-02 -6.437524036386821358e-02 -5.643550028342979308e-02 -2.162957411851039458e-03 -5.866943189439705053e-02 -2.742220400090170443e-02 -1.522145709121495716e-01 -6.059224707872864352e-02 8.016312162659267049e-02 3.882303449778377880e-02 2.979205104450380892e-01 4.046909416442787677e-01 3.215465849972593548e-01 6.756193728963590106e-02 8.207665213044086638e-02 4.562592112808468853e-02 -7.549216690054202927e-02 -1.308951724986097964e-01 -8.908755320933035848e-02 2.988696382170201796e-02 8.518352208699302153e-02 -5.812531053541572512e-02 3.653820352627549367e-02 -9.736027719715578677e-02 -7.602653526968025655e-02 2.857320556436371978e-02 -1.060130079363378192e-01 -1.475285357373429529e-01 -1.673499890486196059e-02 -9.487703699746100061e-02 1.073337850260261961e-01 2.380874776458478392e-01 2.735893176028355023e-01 3.056927842765896214e-02 1.168107838739372711e-01 -6.650759522552239511e-02 -2.187261974463938080e-02 -6.435104335997531011e-02 9.516875307191663110e-04 2.769780557679513491e-02 -5.167029848222481209e-02 -6.409841116078682233e-02 2.786761347708905517e-02 2.942067081359029182e-02 -5.148196300746116921e-02 9.815815990835534410e-02 3.591935393665956350e-02 -8.957786963885598641e-02 -8.762614799864722193e-02 -6.365557565917457847e-03 1.725907579769866279e-02 1.686016287359164145e-01 2.158670062133782874e-01 -4.065733745815712508e-02 -2.313270382041630619e-03 4.195002327343546472e-02 -9.942310691918068710e-02 2.746775011151010235e-02 1.334637398876371145e-02 -1.320587822514465159e-01 4.878257979269124550e-02 5.488641028132500849e-02 -3.607733563217564721e-02 -4.058866336692069920e-02 3.775472086544051642e-02 8.090130650637737675e-02 -9.638674952194638268e-02 -1.286582370175801682e-01 -1.181007211113327543e-01 -1.295538120752017519e-01 2.824224353737998100e-02 4.907294952264724258e-02 -6.116649109750610380e-02 -7.434906306299339518e-02 5.552966222539503643e-02 -3.676497871692614022e-02 3.460863442009382701e-02 3.053882274339256298e-02 3.276499725495587989e-02 2.185115698602127510e-02 7.802347326646687231e-02 -7.925133880270976428e-02 7.273500156000874128e-02 6.997602178475044454e-02 9.578601884312534787e-02 -5.389641118489443133e-02 -1.425684986740435693e-02 1.973184479372986407e-03 4.894188712055033003e-02 -1.144173915844382966e-01 -6.760284390678950039e-02 5.536771985475351376e-02 -5.825266450926019218e-02 -1.111763705254279061e-01 3.844213688448710337e-02 9.798144540982654457e-03 -7.248156825495233324e-02 -9.731504545796629269e-02 -2.924908401782889619e-02 -8.489502221112531222e-02 8.924925673260998560e-02 1.901226030442234802e-02 -3.814506047166643654e-02 -2.817789018468111126e-02 5.743518682611490483e-02 -1.249024649480141164e-02 3.560442596855237229e-02 -7.244283889886364569e-02 6.292663803512531240e-02 9.767220342747559569e-02 -9.343761427324593152e-03 9.261830760836614607e-02 -1.128048733305836715e-01 9.234937812928967205e-02 -6.366641463251434749e-03 1.167307727780730539e-02 6.568495238222156474e-02 5.785624967263401641e-02 9.460198423854192240e-02 -1.241827722771586713e-02 8.211166355651232374e-02 2.292611367219781621e-02 -1.100313480213805511e-01 -3.731163472320082886e-02
-1.428779959811748712e-01 -1.730486100201456337e-02 -7.220388507012000245e-02 -5.533534894324409342e-02 6.230539570296765757e-03 -9.505868994473368194e-02 -3.018063112233762210e-02 9.449678919087023399e-02 -6.831715995019213561e-02 3.606940328974278520e-02 4.473740066060232640e-02 3.076951041682035939e-02 -9.155152010863838730e-02 -9.863019045522240791e-02 1.340739695278966338e-02 -4.917846536699939375e-02 -2.795252142465283821e-02 1.112702269887822781e-01 -9.751899792782080245e-02 -1.068236259086744327e-01 7.524012299504484469e-02 3.250579042495192750e-02 -1.026794664840331162e-01 8.412899064711282238e-02 6.866931436796029631e-02 -2.710906389989446025e-02 -7.430649031473055000e-02 8.815939073932166359e-02 -9.782486801339872889e-03 -6.199049129536816222e-02 6.959452416126249430e-02 -5.888956918015238184e-02 8.042456145381945976e-02 2.260062748335401120e-02 -3.368325026965385965e-02 3.244951602136076068e-03 2.238178394102785865e-02 2.904952571651449843e-03 -1.025313631315001583e-01 5.565477279884970679e-02 9.317617033489325462e-02 5.016885236622261462e-02 2.983096371337692898e-02 -9.620708215047919093e-03 -5.744017435875713173e-02 -5.160269589628052600e-02 7.539679261843854063e-02 4.556559759872039900e-02 3.450827628873482517e-02 1.267221671711994159e-02 2.935561907018137753e-02 9.047965165511752395e-02 1.790586426560064962e-02 -7.677607495475610722e-02 3.635135416749124548e-02 -7.316332793432310522e-02 -9.642922820620859758e-02 -2.882555964658909536e-02 9.941018259644636423e-02 1.015997907086806651e-01 8.032957538169181733e-02 -6.844734284805137348e-02 1.032504487316485836e-01 9.662139029269521673e-02 9.101415561292397483e-02 -6.806856646701248126e-02 -6.972622801924359404e-02 3.346851538702283468e-02 3.809391385977770744e-02 8.360001026544608416e-02 9.690530010805556427e-02 1.785816288016234613e-02 1.980680012598827130e-02 5.098063533672234082e-02 -5.154454914417472278e-02 -3.560901407108083786e-03 -6.439390877725817419e-02 -6.757305982153824497e-02 -8.901333637893012185e-02 4.895350324616057347e-02 9.537412987212423240e-03 7.357124037327170130e-02 -1.124671994026829880e-01 3.911540972821127282e-03 -6.223634841781719440e-02 7.836729369111399002e-02 2.440524932480565151e-02 4.698509844852416517e-02 -4.111653295260435381e-02 9.785641191131692895e-02 6.268223591701865827e-02 -1.671547481421870734e-02 -4.307105203094470369e-02 -1.619996996845933790e-01 -1.459536541415508704e-01 9.392395815373032197e-02 -3.942088604538111773e-02 1.324716775220646514e-01 -7.198100230563829471e-02 2.074209209668077120e-02 1.041026737999504043e-01 1.045123923752438316e-01 -1.131806287081730950e-01 4.812737546010206063e-02 6.419916382266681321e-02 5.499192224885651736e-02 1.413430701375207321e-01 5.171470957603303137e-02 9.250256998899368532e-02 9.437583354426315463e-02 -8.214485220390228826e-02 -5.717876160661353180e-02 -3.052115821555571595e-01 -1.266736331323738696e-01 1.498315949310085118e-02 4.228766127747313197e-02 5.724806312576535827e-02 1.695244577799614183e-01 7.824248781319083010e-03 5.183203097774454621e-02 9.823900092584078592e-02 2.673155895401373855e-02 -1.082056103680859860e-01 4.078398932593176734e-03 2.953286297640509914e-02 2.488560013039057411e-02 1.694832740534968352e-01 4.729349779097071632e-02 3.183828626864484979e-02 -2.410320125549498746e-02 -7.716111904166736424e-02 -1.628069124703155901e-01 -1.871260585006002952e-01 -2.751595694437427020e-01 -2.057198030359923269e-01 -4.284724105863783883e-02 1.238016444021169393e-01 -2.195987683601366425e-02 5.251230504918361422e-03 6.507806470335950055e-02 1.657673859042686770e-02 4.678953036873478681e-03 9.724573248097556633e-02 2.122758674037890717e-02 1.046120824393957233e-01 1.553655384200559875e-01 1.288136343563981989e-01 1.941696665402755512e-02 1.465716829632304208e-01 5.587890454305426829e-02 1.515750406550268534e-02 -1.417102841218698395e-01 -2.051537859680207243e-01 -3.554251440354140590e-02 -1.914278710450129095e-01 -2.841171295077843939e-01 -1.167532035152321276e-02 4.375445317499424003e-02 1.059559451856589285e-01 -3.608694968827549834e-03 -5.970281717333620480e-02 7.647086380750046930e-02 2.494414161045821129e-02 -1.254444134443342684e-01 -7.854488015849349358e-02 1.641469170046637727e-01 1.611537569615960896e-01 7.558937184487021788e-02 8.805026901025454419e-04 -4.512951584795865667e-02 5.976632285250388366e-02 5.062719307188596335e-02 7.518012318693777229e-02 -1.141739629588098964e-01 -1.119293214865573899e-01 -3.450058058519297477e-01 -1.383347904576126275e-01 2.372663257306452111e-01 2.535926089086504298e-01 -5.583348532055102537e-02 -7.899075966167916352e-02 8.918271973601298030e-02 1.826340454817597381e-02 5.931667609416418213e-02 -3.862463303173500201e-02 -1.529101886921654767e-02 3.781038059271146085e-02 -4.104800829453945227e-02 -6.863232817590293744e-02 5.106285925465246789e-02 2.274045477735819887e-01 1.989162902687482970e-01 -1.005121697443649292e-01 -8.894826690126217406e-02 -2.805793000004065396e-01 -2.737841757010974209e-01 -1.853352629039913269e-01 8.961191668595863691e-02 2.077236122615700731e-01 -4.358590640495620117e-02 7.116031496655288169e-02 -4.063860386007098202e-02 1.030783214710706205e-02 2.986091974880572888e-02 3.999550987371052607e-02 7.598395046824080179e-02 9.378006706247954405e-02 -4.683581313141375879e-02 -1.801886752893572252e-01 8.550652442963016520e-02 1.995275347462931448e-01 4.818942802218732085e-02 -9.288566649840009765e-03 -4.384812569077402300e-02 2.247497664216094662e-02 -2.854875827810270938e-01 -6.704239435857367591e-02 3.748634165023106979e-03 1.341746135202620815e-01 5.038926589958771934e-02 3.170216754011684346e-02 -5.250861715255059764e-02 -1.194589758148702635e-01 -8.373329140168936369e-02 -6.022520083584122913e-02 1.014750533070105515e-01 1.249826392763019739e-01 7.226356505398397190e-02 1.344477377028326093e-01 1.365131995870841886e-01 1.707602807558517011e-01 2.383027774676267918e-01 1.752716615421684720e-01 3.234207319766579242e-02 4.107392594135026581e-02 -3.572099334400473392e-02 -9.354885469952047006e-02 -5.096774931599189380e-03 1.094614285350225258e-01 4.164061436552068257e-02 1.132813584336938018e-01 -2.751877786769853229e-02 -4.930641692080297428e-02 -2.076726809901031645e-01 -4.090306043153515980e-02 -4.436990232133156131e-02 1.400266846245367403e-01 1.718548603762193316e-01 8.155067093131035394e-02 3.226008708296053684e-01 2.931042234005780123e-01 1.322453859726947789e-01 2.205966426841458883e-01 1.113905825483160333e-01 -6.371255783097250214e-02 -9.673338759067826031e-02 -8.633069715941223132e-02 1.740928387297879243e-01 1.858929490715368824e-02 -6.560844648346028651e-02 -8.743796752697083341e-02 4.027736213350403827e-02 6.211146435255550206e-03 -1.994794313467684321e-01 -1.519075217991095426e-02 3.974650454576796055e-02 2.384769436475781684e-02 6.791336465944601553e-02 1.860947825876540507e-01 1.648151523367339943e-01 1.161508733982486441e-01 -2.401815193203099899e-02 5.503700947180355241e-02 -5.589522734407729315e-02 -1.748801662430870263e-01 -1.283483897233483051e-01 3.986069311259192449e-02 1.417133255072927644e-01 1.357003730716516976e-01 -3.562371745127594636e-02 4.959560056354797575e-02 -1.198859052809043979e-02 -8.179011311526197814e-02 -8.805269625046674431e-02 -5.860982377253914563e-03 1.046873511482954572e-01 1.785095601729269621e-01 1.985664324177454088e-01 1.463981852364695246e-01 5.042994736372859860e-02 -7.262742695791295222e-02 -1.355681666149830822e-01 -2.273816482138424633e-01 -2.294111901971694345e-01 -8.024950031254748928e-02 9.179710468672631907e-02 1.454590349212384233e-02 1.224827203421198635e-01 1.333325445070077941e-01 -3.701110531633997058e-02 4.875112358751712560e-02 -9.981259254291315053e-02 8.107723036450197041e-02 7.870835918305391088e-02 -1.488374919335005639e-02 8.912017395863466862e-02 3.090090561894541510e-02 5.490451879158513016e-02 1.185335474487813345e-01 -5.016834901710014172e-02 -2.317651457617228017e-01 -2.130090520110315411e-01 -2.133754925043508666e-01 -1.234518291299753490e-02 1.605545259083667950e-02 -1.240784552074647024e-01 3.213518189143738102e-02 1.092041296215795210e-01 -3.930292562934149803e-02 8.716489709260896723e-02 -7.105464104661356195e-02 -9.581991392425352749e-02 7.627299831140071928e-02 9.816458339199493621e-02 5.063442818875171780e-02 -2.922055921534382622e-02 1.313960915173811861e-01 -4.428025264279999290e-03 1.628707152688747828e-02 -1.707746557549075783e-01 -8.117904786610083412e-02 -2.078105836731980183e-01 -2.098345414669004483e-01 -1.026424767583492548e-01 -1.342439944060566659e-01 4.869191484787454421e-02 4.408881390129436306e-02 -2.209724849375978642e-02 -6.526892117681906691e-02 -5.318429018070152531e-02 -5.534822476808123892e-02 -3.372652701671043605e-03 2.775276164228177717e-02 -9.680852876535224472e-02 -7.477271129702185715e-02 -5.216889004084280385e-02 8.202660427821786837e-02 6.768433220519809793e-03 -5.363723010189866414e-02 -2.502677099089013063e-02 -1.568466497042242391e-01 -9.025942203008817388e-02 -9.955637012511377171e-02 -7.296160777414370524e-02 -4.246564765353245258e-02 7.444219303403055987e-02 -1.023993923989734711e-01 -9.834617962647898559e-02 -6.928859295774462100e-03 1.083186537950149575e-01 -5.575345752785552250e-02 -6.306731610337983074e-02 -5.630736261213381555e-02 8.166407839012122805e-02 -6.115138098128544697e-02 -1.887893159177388147e-02 -7.995051839914352199e-02 -1.003833996078538036e-02 5.625004626617985393e-02 -5.276173471044049573e-02 2.529166154990744250e-02 8.316264956169366895e-02 -9.908831461927181117e-02 -9.542065262610988086e-02 -6.491864603694801061e-02 -5.447596368459434700e-03 -5.029860348223799682e-02 -3.580645495922574889e-02 7.783644116971098759e-02 3.700397650336914590e-02 -6.297386266611490480e-02 -1.528478335035082271e-02 -4.651524969859187342e-02 -6.774930666522770324e-03 1.075507129141893420e-01 -3.644510982707347465e-03 5.192782158966767654e-03 -3.450714849709437398e-02 -7.320375795452667422e-02 1.009480413092480044e-01 -1.069277952513514041e-01 7.575234091522702051e-02 4.716857006898909216e-02 3.767252083597256301e-02 -1.097552897117174131e-01 8.223648093445844187e-02 -5.981775708441678524e-02 6.582825461783198273e-02 -7.015989695535208848e-02 9.333128247146001144e-03 -9.914861313154262057e-02
1.010433461136343442e-01 -9.443038980527897544e-03 -5.916991085145976124e-03 -7.491398635165112674e-02 -4.947537365479078714e-02 -9.588203939858289115e-02 9.553915932743803352e-02 -1.018086924736394949e-01 5.338181299009704672e-02 -6.104678402603509052e-02 -3.028001845240755469e-02 9.782446552938950379e-02 8.733734563909816007e-02 -5.966787260015173067e-02 9.669205709695453954e-02 -2.308968736173632602e-02 7.690034822331109909e-02 -8.980313079825714973e-02 -1.607609555088084733e-03 -7.258600407317232495e-02 -4.630733716081945200e-02 3.258497349350299166e-02 -4.486180661632945682e-02 -6.150726744325710031e-03 -1.114030880158470120e-02 8.628861438909579684e-02 -9.346961330190385608e-02 6.212395260917755180e-02 4.596153152179372251e-04 -8.495086727794462500e-02 -1.059801635749956228e-01 -5.369803832692352646e-02 -2.431226377668167446e-02 1.020360052434094306e-01 5.757979346997772752e-02 -5.616152735088548315e-02 -7.643036775751292644e-02 -7.012208334994024517e-02 4.407854292784630507e-02 -1.053746949034925773e-01 9.487776718739737714e-02 -1.006180586851337933e-01 -4.068612272555154064e-02 -9.711902812272230068e-02 -6.476200094634973481e-02 -4.610444165510699938e-02 -1.057600926013156500e-01 -2.019453716231686680e-02 -4.530584107705818570e-02 6.891644283956883943e-02 3.552066896187632689e-02 2.890057744663291229e-03 -5.532355154988777973e-02 -1.728002147598327320e-02 3.152107055671594937e-02 5.812478578069539548e-02 -1.221389446829786452e-01 -2.518438986634381066e-02 -1.144289064521055305e-01 -8.095661331987334631e-04 1.870764813754781722e-02 -1.077913710585536380e-02 1.013413504695509504e-01 -7.674698935733946514e-02 -4.473046369117859855e-02 -9.344325709928012758e-03 6.475649901635897876e-02 1.474065469123400293e-02 -8.629648038146831013e-02 9.543849876104787411e-02 1.165991888614950622e-03 -1.067419326568369714e-01 1.806856827699383772e-02 -8.192815930185542994e-02 1.959588616028223526e-02 -9.421385113426419822e-02 -5.255563232650042188e-02 -8.428290860595305523e-02 7.554243983014528874e-02 4.014751668581729364e-04 -5.946075119316562158e-03 9.954006278046091671e-02 -9.477099920165849012e-02 -6.055272196745698637e-02 -1.236934715550987718e-01 -8.411080446176061320e-02 -7.919408928228353906e-02 -8.014887930291191009e-02 -3.433025982204271354e-02 3.780768348205069962e-02 7.306029729003762907e-02 1.684069527159968299e-02 2.489350014688673091e-02 -1.000510893206603830e-01 -6.355433442130388466e-02 -4.715782192331072903e-02 -7.960520535053862423e-02 -6.651511106228807924e-02 -1.384178972883532976e-01 6.119726097675399351e-02 -2.769355213252682954e-02 -6.063013245500373932e-02 -1.170805923934685987e-02 2.891601052172996372e-02 2.718324669302524255e-02 -2.792304603551659832e-03 -1.620534703663923520e-02 4.276947839621898090e-02 1.113513242376741735e-01 2.886508692399347362e-02 7.202960163376154190e-02 9.200156845721042809e-02 -6.605163699800908894e-02 8.572728127159503250e-05 1.985720351210014042e-02 -5.370850590498733174e-02 6.716621634444270000e-04 -9.457825426126480195e-02 -1.252631406003459347e-01 -1.029351322543348574e-01 -5.033995695781170836e-03 7.377691764896553150e-02 7.467555483961625662e-02 1.108417781960003984e-01 -3.704327944591314509e-02 -1.763815271421876885e-01 -8.003282263555293319e-02 1.372054060998605662e-01 2.344745333628786843e-01 2.139211597980405222e-01 -5.900223880527515931e-03 -1.187163855971667958e-01 1.424052655299867451e-02 1.358482567610940772e-01 2.561513728272846180e-01 1.382622552737209076e-01 -1.966103198099725807e-02 -4.197077913956428347e-03 -1.096363580813008998e-01 7.921725174182933649e-02 -2.894885240441911339e-02 6.874094125056104225e-03 -7.947281578292667015e-02 6.191997158864944589e-02 -1.111282643997490299e-01 -2.462581437532801454e-01 -1.706571183628864674e-02 1.061808381813365426e-01 2.572548827201267541e-01 1.965930801874894371e-02 1.489086914440938911e-03 -5.814377253802771595e-02 -4.619777233772799771e-04 4.349575082634143247e-02 2.433548143653648244e-01 2.755696439860595981e-01 -1.916413037475109965e-02 7.584867336923191428e-02 5.450284139415420559e-02 1.186673175731504382e-01 2.339380432838525717e-02 1.005374607778470736e-01 -7.114591159562952405e-02 -3.415546369743805571e-02 -1.395158472912161329e-01 -6.817949219942887051e-02 1.256361958916127619e-01 1.193377449858752937e-01 2.457989721574363462e-01 -7.844967849193032472e-02 -1.083214123205641366e-01 -1.616030380324194604e-01 -5.732771470690120608e-02 7.399979576386790658e-02 3.077439708829997067e-01 2.065787703277449650e-01 5.542395600376622683e-02 9.493921447371063416e-02 -8.894936776715212101e-02 -2.950235281123653273e-03 -2.451813577356853208e-02 1.453960119903257089e-02 -9.865197326439548164e-02 -9.224231653564472777e-02 6.000027413589768127e-02 -1.298850126310120978e-01 1.184764416173278850e-01 2.595698170751464251e-01 2.158504169063694966e-01 -7.394823144086016577e-03 -2.045992731068415060e-01 -2.906172935781147632e-02 -7.525929468566337766e-02 6.192536042607586083e-02 9.997813573466680925e-02 7.604122828436818415e-02 7.939241077573302996e-02 4.183561023864984518e-02 5.899097094237260724e-02 1.326675334287015229e-01 3.311504657334655988e-02 1.515474515408251482e-02 -7.487502710542214002e-02 -5.158401184342664009e-02 -1.813610010064999056e-02 -5.051290341102496022e-03 1.542533062789132603e-01 3.240048716560546826e-01 -2.544581412418691485e-02 -3.843473688914622599e-02 -2.139158137512044491e-02 -6.258990184699872450e-02 1.887724665780479011e-02 6.506558707267112718e-02 5.263912836334344592e-02 2.249092700800412251e-02 1.310182244995861112e-01 7.155311110512694618e-03 -3.220930478218514414e-02 5.350295612317204630e-02 -5.558896146054283054e-03 -4.503957924459561085e-02 7.869828538056075629e-02 -3.071364128258959394e-02 2.127598189476605922e-02 4.515258429550912667e-02 1.493005264927680376e-01 7.274801911091455242e-02 -1.252349345696532334e-01 -1.621761250545744049e-01 -1.637652831873764037e-01 -1.663730724875640277e-01 -2.606300840438284250e-01 -3.697729457863985214e-02 -1.227932981618943958e-01 5.297492820555037979e-02 -7.669720108698364902e-02 -7.992516331670534990e-02 -1.824678065662515766e-02 -2.762703567930735113e-02 9.090991879635711148e-02 -1.236910618612282672e-02 1.176501593311788801e-01 9.495328965105158392e-02 5.281759029849496245e-02 1.520801889316118205e-01 8.370169057510994104e-02 1.370781164732168267e-01 -1.071804852776728628e-01 -1.669159931840009936e-01 -1.952758934483465325e-01 -2.759933040463982690e-01 -1.805976340502312705e-01 -4.272824572311736263e-02 1.606168069378274138e-02 4.644137406397217532e-02 -1.054122124034560792e-01 -3.519578313137307346e-02 1.116753620444517897e-01 5.251392332841195443e-02 -5.368422756355788888e-02 -5.274420486482400694e-02 7.322155064996625773e-02 7.580178808114677869e-02 8.413360836356985339e-02 9.927160980858870665e-02 -1.117713194402224497e-01 -8.747308698455213971e-02 -5.441576300055638027e-02 -1.090706886871358611e-01 -1.144992928632030532e-02 -2.440450158097876368e-02 -2.540884972542403197e-01 -1.045223301311473812e-01 -9.903606593331261421e-02 -5.995920860490751292e-02 -8.236188499070055957e-02 -6.708693363130679987e-02 -1.901983056355155757e-02 -5.294448147115244502e-02 -8.827145955309377567e-02 3.428797860847218604e-02 -6.778023125127378978e-02 5.294287116475660665e-02 7.800027768154746410e-02 -9.194560025261491742e-02 -1.232020806788315936e-01 2.065984155884660264e-02 1.153339118055165674e-01 5.226106504563874516e-02 1.707618496201121772e-01 -1.059325623797907068e-01 4.366733145418078693e-02 -7.551154930971878954e-02 2.179176711497068843e-03 4.773119212540554573e-02 -7.853441736264430567e-03 2.067095101492961995e-02 2.182785787008712300e-02 -8.724920129898935950e-02 5.145400794588522037e-02 9.687468344422710265e-02 -5.768163124468349973e-02 4.246321167252959522e-02 5.014091790682344979e-02 -5.775040045752492107e-02 -1.058639814766918485e-01 -1.174246584231960905e-01 1.080047146519268059e-01 1.613246726778887474e-01 5.627757314777312447e-02 1.558294440374240197e-01 -2.077291155608734438e-02 1.755771108556459376e-02 -3.878219529221271777e-02 2.083533536731846728e-02 -4.131860301334127489e-02 5.542974561619821300e-02 4.637900376002885433e-02 8.632295094451150619e-02 1.100225514329279675e-01 2.326764668277452736e-02 -3.168551144774109374e-02 1.049357313936604141e-01 9.200103626009943636e-02 -1.099708733137555183e-01 -1.253906648788226108e-01 5.399642091370080582e-02 7.992454579429286721e-02 1.735764663230471017e-01 1.231577626636421036e-01 6.474809786371768516e-02 6.277351161526530110e-02 1.496410088996122552e-02 2.289639559303483299e-02 6.259998216036082030e-02 -1.888249241561608741e-02 2.775365565086488490e-02 -7.848437430083873845e-02 -9.569221230579308402e-02 7.698161834193652242e-02 -5.491927723271248368e-02 6.895679618245070808e-02 2.574754152827632078e-02 -1.134057668482768150e-01 -1.230291973707304393e-01 -5.081408611744722692e-02 -1.040248103124384177e-01 2.319910122137033154e-02 -5.419116039743572533e-02 1.091522246680577679e-01 7.339721110710503704e-02 6.661995462268278934e-02 -6.724897357516795848e-02 6.597863271072998415e-02 -9.737723475918030891e-02 1.426562929389019532e-02 7.184811249722607152e-02 -4.468951611453843981e-02 9.754960152992078748e-02 -9.644482325644614107e-02 -6.440812518489108518e-02 5.569967517154093134e-02 3.382090666934810252e-02 -3.976228722362784226e-03 5.443444256438757789e-02 -4.245800371887735111e-03 6.670257575178867304e-02 2.160447683874520963e-02 9.563390311846409197e-02 8.574204557398859561e-02 4.996107819414973006e-02 -6.420039195332317983e-02 7.251932128131217958e-02 1.072949445823289938e-01 -3.165143843588552608e-02 4.167372791057270820e-02 1.198981574612105515e-03 2.576523151507564488e-02 3.800667416654291558e-03 -8.931638054082854938e-02 -1.032358564920183852e-01 -1.991193281887023228e-02 1.952952453204322841e-02 -4.797024144577971549e-02 -9.179101009865589522e-02 1.099892055278824388e-01 9.636859140813623659e-02 -4.027670852760500270e-02 -8.582704937687422875e-02 7.484058127931475513e-02 9.013759251035793896e-02 9.697585724583634992e-02 -6.431114296907060063e-04 -2.018218226549174307e-02 -8.885426966285342454e-02 7.554990214007573091e-02 7.168506189906406756e-02 5.599948174666685707e-02 3.184136176593894280e-02 -5.074491566647897772e-02
-1.957358422394191166e-01 9.816918154285692033e-02 7.805598881251553378e-02 4.702949689582751336e-02 -2.460606705114068427e-02 1.018734790851476557e-01 4.819822414086488011e-02 -1.049964139017813963e-01 7.393079240355156234e-02 1.654275265646596230e-02 2.768579654461881395e-02 1.096322681632330431e-01 8.259604155099829065e-03 8.078203043316271870e-02 -8.925487578278726297e-02 8.598480786647119678e-02 -9.381158235455669403e-02 1.069791693314097181e-01 -8.923922077967855193e-02 5.588558891293027991e-02 -1.119377294530313760e-01 5.338281987428111081e-02 1.063760654223331291e-02 -1.078364729348175038e-01 -2.097658661544019726e-02 9.083551508359927543e-03 -7.214010071856095940e-02 1.091110765965610518e-01 3.820533032660664713e-02 1.021727569123187934e-01 2.704748241094187891e-02 -4.835914218455070884e-02 1.130720229782433001e-01 5.011835437449911612e-02 -7.297242448275489436e-03 -1.129481918927761463e-03 5.208390125594556525e-02 -8.229470933349761208e-02 -2.084336760048854931e-02 -7.604512069348963454e-02 9.775875770858184766e-02 -4.851693527433849351e-02 -2.348827512685494265e-02 -5.734006986797701710e-02 2.951851932226159242e-02 1.757047244593820320e-02 -4.209611838350457019e-02 8.515434120581366617e-02 6.279606065184106887e-04 7.400120916493176104e-02 9.694379320359119978e-02 -5.073541969776293459e-02 -1.895372840567950299e-03 9.760562480606817248e-02 1.908263227270599535e-02 8.852908514341824298e-02 3.042465526632342002e-02 5.374263707032129328e-02 -2.325874711267617370e-02 -1.121975384677469968e-02 -1.698444217028768563e-02 8.467592317231885379e-02 -9.451042146644590691e-02 -7.867066346841877778e-02 -6.992979608156772720e-02 1.109174422360212631e-01 4.318610433637500023e-02 1.256575324707914498e-01 1.235289061636060809e-01 -2.375852803278044947e-02 -4.514534229711740509e-02 -3.414285917850250207e-02 -2.025529413767755346e-02 -2.307264050257840787e-02 1.813052899124797113e-01 1.358568263049649699e-02 9.301094233046106052e-02 1.137402387046488467e-01 5.374914220066584480e-02 4.623601951851178532e-02 8.473608306966774750e-02 -6.906108718446914152e-02 -4.107889336095845584e-03 -7.998372449231547221e-02 -6.647813121809129089e-02 1.014174428679085055e-01 8.168186170640988342e-02 1.115499509494350672e-01 -6.692856055222433376e-02 -6.274553344700735391e-02 -2.292794033387877684e-01 -1.615062958685295758e-01 -6.855792527124472679e-02 -7.738139611232465465e-02 2.271700421387263386e-02 1.526969055945630038e-01 1.433239980433893279e-01 -1.283121548388002978e-02 2.833014570804897464e-02 -1.108971205327023979e-01 -1.595793550556338231e-02 6.619342050741869321e-02 -1.364806081777544680e-03 5.301777313013199960e-02 9.668946724904291246e-02 7.626912543958526414e-02 -1.727536500538139064e-02 -1.527532435351409805e-02 4.777059862159437065e-02 -1.265484676964561406e-01 -3.375936434260554120e-01 -3.268378882906703420e-01 -1.875115686996700615e-01 3.311876921356030068e-02 5.400040261803631253e-02 1.725137346013408957e-01 1.610335272280779273e-01 -1.280877497055235223e-02 4.250174758789866669e-02 8.160207060325945505e-02 -8.852757398164406988e-02 -1.116492184995661330e-01 9.161980536528491204e-02 -2.790844708920376185e-02 -6.046260254594192085e-02 1.175521334588440665e-02 4.579606836628256905e-02 1.508276641931472206e-01 -4.978720867216619023e-02 -3.418265172658113138e-01 -3.080643340169009758e-01 -3.555427203409119441e-01 -2.325281965081821001e-01 1.269043603129769160e-01 2.981289515814666835e-01 1.423161012282012361e-01 2.351554749062825245e-01 3.098384564253482687e-02 9.762398752070511332e-02 -7.443023491749613252e-02 7.627868077422592097e-02 7.963242855872036674e-02 -2.985482399294683148e-02 1.244237852734643565e-03 1.784260981770505461e-01 7.210896948324382882e-02 1.314852986392410494e-01 1.113397224631748061e-01 -2.012475298798758749e-01 -2.847593607269050531e-01 -4.128469351228473139e-01 -1.947533639537616379e-01 -1.611902219015245996e-01 -1.947816645371268016e-02 1.409019130484912563e-01 1.704395219205240841e-01 1.237130062325617202e-01 7.192151501189421314e-02 -4.347741273558766023e-02 -2.265061622004727049e-02 1.244618570591566470e-01 3.012716831568088005e-02 7.844835478741718493e-02 -4.315767171519213630e-03 9.847039174286290053e-02 2.391139829360511004e-01 7.507442118117400864e-02 -4.534332583769895564e-03 -1.284849951788090694e-01 -1.924446884000073077e-01 -2.162168843296886633e-01 -1.360631532524120557e-01 -1.326904034131830626e-02 2.887575065688798362e-02 2.523436678354049612e-01 2.496714871574361172e-01 5.722179141898164206e-03 8.908817302987878661e-02 1.433520451114490002e-01 9.612891981569429700e-02 8.655131642194090202e-02 -1.502928453698042406e-02 -2.689718514526211190e-02 6.420911255064862266e-02 2.106266128169856644e-01 2.388516302805700764e-01 9.087549448116030715e-02 5.485796845414447898e-03 -8.464119203246243950e-02 4.647721307229006615e-02 1.117867197811426953e-02 -6.633629754899642017e-02 -4.013926156999669467e-03 -1.131672158669501937e-01 1.194926467674278930e-01 1.723657118469767158e-01 3.599331858163019177e-02 -1.674167988876352695e-02 9.047475036857924313e-02 -8.312981083540508381e-03 -6.781318127742507265e-03 9.739098172105686846e-02 2.700071596238518348e-02 5.347289257895075643e-02 2.684899204952384544e-01 3.301450038339493465e-01 1.585729753888230065e-01 4.975747053244782003e-02 -2.271884883445531630e-03 -6.853131822374657067e-02 1.740980607479812592e-02 -1.919669721382663281e-04 -1.285074433914559777e-01 3.034321667498184397e-02 9.812301832246049516e-02 3.624205747187263932e-02 5.930047628637804408e-02 1.528257112825503194e-01 -1.934888987637013377e-02 -7.486264442083127857e-02 6.970661887377797850e-02 -8.051116931954996336e-02 2.218036191926914258e-02 1.195540876810603087e-01 2.224216138669504461e-01 1.471296066455230200e-01 2.875867040352903317e-02 -3.091975044447005730e-02 3.384904682673948312e-02 1.608746821858293360e-02 3.718611718876182332e-02 -9.055737048384113197e-02 -1.846771780712707645e-01 -1.376007877417798619e-01 3.939265620853069777e-02 1.848351237567613381e-01 5.326100632679569430e-02 6.119497270614365769e-02 -9.695591006581434634e-02 3.870495797083224609e-02 1.128771114631991340e-01 -2.215767131987420382e-02 4.346020519215573752e-02 -9.257823668650950674e-03 1.046089575825807916e-01 1.946465671652178320e-01 -3.841990936018904040e-02 1.043926220174194036e-01 -6.708213071140669941e-03 -4.889719586657050726e-02 -1.660599992230329947e-02 -1.039091071331171429e-01 -9.718744173107649043e-02 7.934083589099274331e-03 1.127236881799259238e-01 1.945128065852049226e-01 4.757060860567266514e-02 4.735177274993238039e-02 2.644871732610131962e-02 1.045359572747402294e-01 3.598933767280591139e-02 -4.934103717306729392e-02 1.190042762784214725e-01 7.941412344137520340e-02 9.427763851697830433e-02 -2.568083992044875932e-02 2.205374109301677307e-02 -8.013049882648394517e-02 -4.057458957866426352e-02 1.182197305274451521e-01 1.697171199773137365e-02 -1.349204957111879155e-01 7.617737609885098793e-02 9.053588313273221166e-02 2.414091064066722220e-02 1.072353723642225781e-01 7.332227890410410176e-02 -5.936561524825189479e-02 1.468460605746177948e-02 -4.343139110947783627e-02 9.866004472544452619e-02 9.405873323175760470e-02 -8.224409827613918256e-02 1.157053196252316035e-01 8.110035170610860322e-02 -2.228426853497298896e-02 2.567821890848096672e-02 6.125068189421786075e-02 5.569029365748681681e-02 4.098324064160899921e-02 6.059369791951096235e-02 2.977445744465246832e-02 2.548163156665871412e-02 6.837296136971734994e-02 2.068142978617075189e-01 1.811725769397079244e-01 -1.949021171096855520e-02 2.871389067777723944e-02 -1.382822477216917312e-01 -5.745140341784709531e-02 -8.630471520083576875e-02 3.973448666688662867e-02 -2.407232669910886944e-04 9.982376089047319268e-02 5.747377784228278191e-02 3.080269680263868909e-02 -1.260197821512843430e-01 4.145693062597885503e-02 1.497801196902082133e-01 -6.381578155563939758e-02 5.027868788105051973e-02 -2.195913541102886141e-02 6.497300849243177467e-02 2.093661221360293700e-01 8.931976076663300512e-02 1.943249129305999042e-03 1.261441549405314111e-01 -1.689202622946184632e-02 9.357101911655148554e-03 3.077193942779024582e-02 1.956428530157505383e-02 1.851382103453044076e-02 -3.790947982202588773e-02 -5.347974930547653299e-02 5.695472800581938971e-02 -1.321861063719094800e-02 -2.728318562557107904e-02 4.645705768372275501e-02 1.091712607274473307e-01 -7.982016042120575671e-04 3.403808872669335239e-02 6.086406528043212388e-02 -6.277356999315891750e-02 1.301913233748340226e-01 1.675048499478326014e-01 -1.908129990025742018e-02 1.396450356646903104e-02 6.564467358998957169e-02 -1.251746622288529669e-02 5.668939729680785855e-02 8.617750519175343404e-02 -6.600680741223020898e-02 4.005900359659806537e-02 -9.510375610551775882e-02 -8.101538634631919034e-02 -1.424374558246835620e-01 -7.890013286346631016e-02 4.388933053200037848e-02 -6.157141867219964593e-02 -7.908993949650122701e-02 -7.636510943214501468e-02 7.519881749398202309e-02 -4.313412762478487789e-02 -5.522376825117293608e-02 1.211628829492342879e-01 -6.239974778818547368e-02 -3.138016967190384449e-02 -5.107905767564285826e-02 -1.074916272094522673e-01 5.335542921686762391e-02 7.766411239779943965e-02 1.094049023345081834e-01 -2.886182098029856091e-02 -1.094284464271555041e-01 4.406617511875678128e-02 -5.930553889982868171e-02 5.248422652773258867e-02 9.453735765051929363e-02 3.397206156143310618e-02 1.007503894616549739e-01 6.263494424656709803e-02 4.377523575784240256e-02 3.369894994239534119e-02 1.265160290179911072e-02 1.187278624471723720e-01 2.935015512617854608e-02 8.251157623659750862e-02 -3.055958889142283003e-02 1.615437341900755053e-02 8.136926709916303402e-02 -2.117803364175474198e-02 -1.008437831888824854e-01 -3.946199548119847661e-02 -1.312730421882928392e-02 3.649109000825359606e-02 1.009957895415733858e-01 5.492364844561989368e-02 -3.915328319918297967e-02 -4.141568865568932833e-02 -2.768077509659008090e-02 -9.246741847601212816e-02 -6.587902337828401012e-02 -1.007174737324887936e-01 7.537410910208933168e-02 -3.482074182432209897e-02 -4.477449181802867911e-02 -4.815520418144065380e-04 -9.341314921969555429e-02 -3.158653137807494043e-02 1.532009478141713524e-02 6.961215840467525895e-02
-9.782973257167501546e-02 -4.367228948279848651e-03 3.688501692543685179e-02 -4.825278800301043003e-02 2.285891414086306181e-02 -3.066343691618835660e-02 -2.078479493034109810e-02 6.224123929444265457e-02 1.224926839069865984e-02 6.047909838270899147e-02 8.146542595357114669e-02 3.887373053957736413e-02 -6.644625131669321116e-02 -7.248800651300998932e-02 -6.696783630227937101e-02 4.034613990550850460e-02 -7.057076982508643515e-02 -5.852732348584941541e-02 -6.389582566833791610e-02 -9.084502930280763389e-02 8.374045907146304701e-02 -9.251202648508209669e-02 -2.733978638049526164e-02 -6.379736461106979423e-03 2.647519734013242115e-02 -7.325024287107340104e-02 -8.760003176281935811e-02 -6.409734912688579145e-02 -5.908142529624129530e-02 2.500141198302256729e-02 -1.045807480042707238e-01 -8.877844935036727225e-02 -5.043823736334947933e-02 -6.771752565957028791e-02 -1.113732945359507676e-01 7.078724779827726132e-02 -1.038673060242664842e-01 6.552664925827283993e-02 9.995609517635233032e-02 1.099912532745441068e-01 2.428240950248506877e-02 -7.265589198555963413e-02 -1.035962973760673755e-01 -4.262423006802149722e-02 -6.918058073852870193e-02 4.792281941702185993e-02 -3.044793957546160917e-02 5.398169227209601018e-02 6.529437082606703857e-02 4.528686488236458030e-02 8.916266066844742710e-02 6.609083986612435124e-02 2.626280065475439587e-02 9.246410868573311237e-02 3.228938261330447507e-02 1.241321056804459422e-01 8.513527040259942502e-02 -5.471572764577805476e-02 -6.416844588270426142e-02 -1.091092789909183930e-01 4.582575073100682295e-02 -1.382764016239428941e-02 -3.410269057405747317e-02 1.020426792130416094e-01 -3.568307821212306913e-02 -5.113498449872713042e-02 -9.192190861634880888e-03 -5.622825268681017757e-02 8.496029223186438162e-02 7.236402754480382449e-02 -8.462144287215217497e-02 -1.472935967531369683e-01 -8.449849160547054372e-02 -4.762558896776230601e-03 -1.665116756442150403e-02 1.341411863246536572e-02 1.042470675204948266e-01 1.288926621536791162e-01 1.151215341475883280e-01 7.835971595210645957e-02 -8.965337661576139663e-03 -4.895726929080495421e-02 -5.593277810315184367e-02 -1.015961195106769716e-01 -9.764184960957036918e-02 -4.429282172658789707e-03 -4.186180336782783368e-02 -3.575355479415674026e-02 -8.976074359444408124e-02 -1.726418014875326645e-01 -4.089243725926638984e-02 -2.621494036036893238e-01 -2.574125158937122793e-01 -1.700418921366294023e-01 -4.390278668379951621e-02 1.252859277162926277e-01 1.870847572395863134e-01 5.247394272426254835e-02 3.339965409849515732e-02 -1.027323712282253165e-01 3.604485432371812292e-02 -7.531610637056648794e-02 9.584665463293570720e-02 1.137644305004677919e-01 7.594849367092650419e-03 9.318932449074560781e-03 9.601280447154726672e-02 4.402147208598607142e-02 5.802896281671696826e-02 -1.904291528131275557e-01 -2.967868657345149597e-01 -2.208802532859249768e-01 -2.863646668273806539e-01 -1.929454251092933559e-01 -8.450013311724495491e-02 9.443289277525955885e-03 2.511573518517609682e-01 1.509720549660275302e-01 -4.430668951644027576e-02 3.145080760217119215e-02 -7.990575659033379019e-02 -3.522592345616715193e-02 1.097258265729466609e-01 -7.859078562914502408e-02 -4.040169547811544096e-03 1.919070808172790854e-01 1.454140977404868307e-01 3.780247198561061811e-02 -2.224144296162949008e-01 -2.213814205458295159e-01 -2.577351834667226393e-01 -1.960307028200092561e-01 -2.213793094149676122e-01 -2.708027570886342716e-01 -1.544603486315816454e-01 2.279371131462868544e-02 5.573316584453621991e-02 5.955174817397535653e-02 1.615919459326717322e-01 -1.956393880825363710e-02 -8.401774288215442532e-02 1.039529331012451277e-02 8.217359742647174781e-02 -3.040505468878378168e-03 -1.224784856770068766e-03 1.549544062963843505e-01 9.950809763784447537e-02 -1.022042590889620794e-01 -1.767522922077595093e-01 -3.124617332054339669e-01 -1.282399344869308566e-01 -2.082183029281060582e-01 -2.217117824703598861e-01 -2.422269781406711509e-01 -9.027370115782153018e-04 -6.167836824272925067e-02 1.461478872237286508e-01 6.978879977284535574e-02 1.412903061968878160e-01 -1.482362217619362897e-02 -1.757894003346294545e-02 5.701293880063906111e-02 -3.582676440090147574e-02 3.117848936533007282e-04 2.134283745426716894e-01 8.130712303488317472e-02 2.636235375386224503e-02 -1.194807211227139482e-01 -1.954883159772577983e-01 -2.297166406844268483e-01 1.956215136533133447e-02 -4.501893745527180829e-02 -5.044605984124237580e-02 -4.976852872114032045e-02 -4.484277397861012593e-02 8.274287647895774145e-02 9.442539486477770361e-02 8.469856246751310269e-02 -6.307311257206799082e-02 -1.109071716995237156e-02 -7.835249115536414843e-02 -3.612216514635203241e-02 -3.522006238040146890e-03 -6.927336226588919066e-02 2.030082678163402932e-01 9.931053275457440987e-02 -8.154244441570311294e-03 -6.934533441798156062e-02 -7.550714399560801149e-02 7.857297486002583209e-02 1.947586258147817051e-01 7.783695283068937931e-02 1.256870553100662424e-01 1.129339679900331489e-01 -5.184886333058175839e-02 7.257875719980412532e-02 -3.862632775026024479e-02 -4.355968976999264469e-03 1.058233246933107663e-01 3.390785040694998392e-02 4.969565344451600669e-02 -5.535450264520200975e-02 -5.271142610566235953e-02 9.240088794339823552e-02 1.435901711351221244e-01 8.035285163924192620e-02 1.261087468647367205e-01 -2.831110959617767764e-02 5.327177447926170067e-02 3.548801829433438360e-01 3.864633990927618945e-01 2.692408929795908068e-01 6.759225173188500302e-02 4.809501247401381380e-02 -1.993823449017026461e-02 -2.065642317817303203e-02 2.914982038672038825e-02 6.510749187175504833e-03 5.488405950404347255e-02 -8.434850884417584294e-02 7.574233112574726111e-03 -2.782176730056369965e-02 2.983043703083250800e-02 -8.907305351774096047e-02 1.339598228952926517e-01 9.414805555037951412e-02 -1.055615553141165397e-01 5.522896540853904079e-02 2.009478767779145358e-01 2.804461184916407501e-01 2.138278564659825687e-01 1.784429867361023853e-02 -3.199120423686974135e-02 -1.876473861646759875e-02 2.316240202816594908e-03 5.103222417094410018e-02 8.299685899847619383e-03 1.498656068987205825e-01 -2.732673984416246829e-02 -8.224675606058653998e-02 -5.977530770265154086e-02 7.361563652377005502e-03 -6.980461517170412356e-02 -4.536698389855131630e-02 1.152303606360416538e-01 3.956137510578488364e-02 -8.529534238517730294e-02 7.159737829542998921e-02 6.443095351392080783e-02 9.386566336674734279e-02 -6.805629756900029304e-02 6.173684194653733526e-02 -8.416908218353473525e-02 -3.931608735536143429e-02 -7.067310117493579014e-02 -3.944587489740255387e-02 -5.639558103288074692e-02 4.672049775153831047e-02 -6.645529417102712111e-02 6.991891973189751086e-02 -4.316949868317352529e-02 1.035623455407583826e-01 -3.674652369663285179e-02 -8.517517487089706907e-02 3.813263829937285024e-03 2.619829590861923879e-02 1.070333248971511442e-01 5.692636045887063123e-02 -6.635744962752072873e-02 -4.501237989439867831e-02 -2.511484926993105132e-02 -3.586351801866465711e-02 9.751069013374072392e-02 -4.460606537104630509e-02 1.068810148820950878e-01 7.356216424016556732e-02 -3.812254261309249576e-02 2.257459099431367855e-02 7.768312900674213817e-02 -1.979698825409585000e-02 -1.101701069139347094e-02 1.283259069009619335e-02 -1.491383179925483485e-02 -3.665416537942298159e-02 -8.163790890956275359e-02 1.202754961734138484e-01 1.835731937769020244e-02 -9.751481546362213149e-02 1.073175485056537988e-02 -1.158532829835260125e-01 -1.093173460502202265e-01 -1.530213912098211670e-01 -1.077495444225209237e-01 7.304128322827826980e-02 1.169444310657309638e-01 1.301937822803669320e-01 1.134194837170516140e-01 6.317558178112654688e-02 5.061713433426837799e-02 7.908512797460499899e-02 -8.134172377685426614e-02 9.524275732002908390e-02 -7.341433264950093796e-02 -9.473009085712548460e-02 4.027311768651572338e-02 2.980180684900511634e-02 1.627458632188505047e-02 1.295286557221806967e-01 -1.300087822179657737e-01 -4.638758020131877879e-02 -2.093429514227720389e-01 -1.587571513123504918e-01 -6.947779760830601059e-02 2.878363098786261912e-02 1.287159201393592578e-01 8.762404863314543491e-02 6.826132879756095784e-02 7.761499412409379739e-02 -1.210139284575007662e-01 -7.907346203687634634e-02 4.378239301264529731e-02 -7.235027834207777286e-02 6.558829709667038203e-03 3.667284310922790808e-02 6.039908659618415526e-03 6.281819058495728691e-02 1.282184364859143832e-01 3.121385430084230514e-02 -1.423599849631269620e-01 -2.149216987387774294e-02 -2.170411550412889856e-01 -7.398936697781270666e-02 -1.110170103877568953e-01 -2.308456919680988012e-02 8.042257154260762375e-02 -5.032196404879183543e-02 -3.825725630927305498e-02 5.956721155294764092e-02 -5.041674294486987035e-02 4.848226887081583808e-02 3.034534753539278040e-02 4.658219832426453710e-02 -3.329620604246841253e-02 -2.674453412530733085e-02 -9.955396745863220875e-02 -3.287248989759162382e-02 1.380104457882298796e-01 -7.752631683880358004e-02 -2.911357169726382088e-02 -9.517760499281593956e-02 3.762830600541977599e-02 6.400436870407413825e-02 3.813757875833513611e-02 -1.284924430686809789e-02 1.042374779239793881e-01 -6.674794356719949973e-02 -7.592295899299932906e-03 -9.161228844553883852e-03 -4.080922631800419642e-02 -1.480770918404559003e-02 6.632842428949668745e-02 -8.394075542489752573e-02 -5.275880207789106213e-02 -4.939534401531901070e-02 1.054588205537491247e-01 1.098415972618924513e-01 -7.439709249556301050e-03 1.020388974782021202e-01 1.096273810248321323e-01 6.304221988820160605e-02 7.711753401522164486e-02 -3.492756205748873827e-02 -5.563958676234823791e-02 -7.964793433986569471e-02 7.693178874100936593e-02 -2.500574556003831283e-03 -9.711267114144864210e-02 4.510674521561506417e-02 7.788074928010529918e-02 -6.450838409505648980e-04 -3.935522687813026305e-02 8.670889019409422360e-02 7.235987640790860626e-03 6.288545678900271663e-02 9.624076154964818219e-02 1.058603627578402762e-01 1.674767929159669418e-04 9.054055318923752427e-02 -4.982111400912100918e-02 -4.133594895378236989e-02 -1.202333736771045089e-02 9.886226082908195628e-03 -3.904427035351520220e-02 1.015327676307513916e-01 3.941603435593851040e-03 9.803168881330025231e-02 -4.823846473447135352e-02 7.123596581693783514e-02 -9.236518324978197636e-02 -2.521296241385373622e-03 -1.272696008605304560e-02
3.146939023142868164e-02 3.921022518742178775e-02 2.534279235723602836e-02 3.493268650924187535e-02 -2.773464281634091533e-02 -5.878166052473831477e-02 -1.080917192520500086e-01 6.865232265136457512e-02 -4.826035351682123747e-03 2.961911463783219872e-02 3.025253556381229600e-02 4.647563033724377152e-02 7.896031106836513824e-02 1.746593582063853470e-02 6.787620273060337994e-02 2.663056914155132945e-02 -1.918831666633930011e-02 -8.984539288515235034e-02 -2.378387264737714252e-02 5.993068850478125431e-02 9.661527565696186037e-02 6.376668759970784139e-02 -9.013040239758918215e-02 7.405420455179222150e-02 -5.783232042179507065e-02 3.336634568604714135e-02 9.034112728018975358e-03 2.906907242329641664e-02 2.425825928674146814e-02 -8.613888118730869681e-02 3.362480528566599153e-02 6.319711433018442015e-02 2.453952612027711019e-02 7.000335948570347855e-02 -7.271018350007449858e-03 9.590037594910798269e-02 -2.611610700815898689e-02 -1.045763714028566105e-01 -7.653536652282445785e-02 1.050498213759952365e-01 -3.946309350896434059e-02 1.121728183919812188e-01 -4.318633221699737235e-02 5.900093142866974505e-02 6.303122653229933925e-02 -8.918097845926158118e-02 -1.029114160663278099e-01 -5.364528417849065423e-02 -1.239046429457685700e-01 -3.024600532107885043e-02 -6.538371957135837020e-02 7.341693479057387339e-02 4.259051558280151084e-02 -4.000947983772971950e-02 2.623823497211894354e-02 -1.439061532528597975e-01 4.911678500533291081e-02 -7.340797379634396436e-02 4.526563137209924093e-02 -1.710411071576798184e-02 -6.346401842218540867e-02 -1.011277121824205871e-01 4.122571289951688228e-02 -6.108953393528236686e-02 4.673866657800244961e-02 -7.144732702116725342e-02 -1.102622856051534983e-01 -4.721098049266286151e-02 -4.919610102287749753e-02 8.482560654384585508e-02 2.487686979992574307e-02 7.587655762672743109e-02 -8.892700248173816824e-02 -1.039548867387075914e-01 -1.505813903952323562e-01 -2.198099395289761573e-02 -7.540844901655699428e-02 5.913411562907287811e-02 -5.081312932047895442e-02 -7.923379718010024886e-02 7.377469869279118520e-02 -4.174211386944312596e-02 8.823270502517130409e-02 -5.979096723670877800e-02 -5.572310775856100656e-02 -3.770812123006737210e-02 5.506469078488904906e-02 -1.430565562783722433e-01 -5.734571419183856489e-02 9.713184399200314179e-02 8.899757665942614748e-02 2.160432156792919597e-02 2.168500080430993404e-01 2.320272660099392537e-01 -4.883307158241756429e-02 -1.032227026202040543e-01 1.944576567691433736e-02 3.239525997321594797e-02 4.640883984316521160e-02 -1.459860582361023271e-02 -1.096217870233656688e-01 -8.594051860849813429e-02 3.713514472882586265e-02 2.036747460497490350e-02 8.105332956919129861e-02 2.860479280232509913e-02 -1.377433599118088048e-01 -9.904915261901471590e-02 8.184446868750121229e-02 1.005910351632698374e-01 3.685979562889425687e-02 2.134124837887264314e-01 1.396455263092185872e-01 1.583948857830747570e-01 2.457804495252879362e-01 3.110105491002599851e-02 -7.731926486109640118e-02 -7.945427316294018105e-02 -1.764179169453131690e-01 -7.676044948112427380e-02 1.514116853308981187e-02 -6.655660368708359031e-02 -7.400737881802395279e-02 1.176269700449575351e-01 5.195688693805342040e-02 -3.950575959697740641e-02 6.232347035978003796e-02 -9.722062053925356606e-02 1.570455932541585109e-01 2.579441462161004284e-02 6.499762174503158352e-02 1.484276622237343801e-01 2.299858926150103455e-01 3.187201807060746628e-01 2.814022386078326998e-01 2.619162238073378113e-01 1.444655376843384173e-02 -3.897443920083593777e-02 -1.796022414622128749e-01 -4.558002346921375542e-02 -8.109302850142426078e-02 7.956845977595583541e-02 1.084001084064669246e-01 1.565838546899027059e-02 9.438674190701801248e-02 -1.124038767713387704e-01 6.718216343851443617e-02 2.061317137971576882e-02 2.016690879108360424e-01 1.266499449536244992e-01 -1.728940879693027441e-02 1.153872608344071321e-01 1.044882753599459674e-01 4.498396497189063314e-01 4.582826402984550018e-01 1.318312268201314863e-01 8.624900830028028875e-02 -1.108720903009104836e-01 -3.350564613261330926e-02 -2.092343884773955037e-03 7.035224437151325894e-02 2.267016708657974139e-02 -1.029855436592346241e-01 -8.294825822850485086e-02 -3.429840048319752338e-02 -8.009668850198425893e-02 -5.189404334767210025e-02 4.806642822018320632e-02 1.615202643214217193e-01 6.805053896951597514e-02 -1.896184639520686332e-01 8.181425666918486217e-02 1.747221255478843827e-01 3.091570540481588525e-01 4.004928340551147103e-01 2.484666343044568959e-01 -5.671443343643601392e-03 2.281615359155579267e-02 -6.444901865127025675e-02 -5.564868404904962929e-02 5.695559791876215333e-02 9.848657778846024724e-02 -7.084636915792053014e-02 1.140812098247212941e-01 -5.647047877587901311e-03 -9.012121459443496463e-02 -5.542877838113879213e-02 2.689847935496202189e-03 9.283038398265232305e-02 -1.884734006158081399e-01 -8.970668482358455653e-02 5.514104725775844268e-05 2.043913604786045946e-01 1.987656227864249558e-01 2.440342332723143270e-01 1.680495170652839265e-01 -6.128501992524321151e-03 -1.287352734571782231e-01 -1.617840037468323278e-01 -4.009682178742051545e-02 -8.733267496751144499e-02 3.547297103925649286e-02 -7.065165295381041488e-02 5.581711017174933315e-02 1.064123402956235892e-01 -1.911900357996890870e-02 -1.443463149920197752e-01 -9.952009164474830138e-02 -2.271605292668882892e-01 -2.877861455187875617e-01 -1.303926471553838728e-01 -4.827698837732490728e-02 5.701282641436814652e-02 1.417092565860369469e-01 -2.750146353551207942e-02 -3.278143141638827779e-02 -3.482496470853870679e-02 -5.154465962816848906e-02 1.891547892179850764e-03 -6.911193644805896374e-02 -7.179140346382170690e-02 6.192931113404584464e-02 1.819447009071674393e-02 1.785737665737378022e-01 8.489713828316956812e-02 6.325620112099385010e-03 1.318416408915398276e-02 -2.324552752809534439e-01 -2.852861354469446997e-01 -1.411953418521545156e-01 -2.529043446976844689e-01 -1.716355753353479563e-01 7.754839370710874674e-03 1.837604126896578635e-02 -1.807713730012060422e-03 1.354332164754069312e-01 -3.732226662955448471e-02 -1.350478605440429136e-01 6.246645249827812406e-03 -7.518829596220168165e-02 -1.491949018262172383e-02 7.763039022833888303e-02 -6.149171150085159382e-02 5.991317029159923951e-02 2.203603569121902195e-01 1.539292302603945672e-01 -9.057722208661199426e-02 -1.710872248495299563e-01 -1.092241451091324339e-01 -2.201574637696236958e-01 -1.031173201226141117e-01 -1.057573189650194145e-01 -5.402506299631874842e-02 1.397520536563505791e-02 2.603167017640422957e-03 -1.202369925781431211e-02 7.503628390265827675e-02 -3.862363862844024609e-02 -6.996491484149815199e-02 -1.968381133529279250e-02 1.066083909449127842e-01 8.677547736002913514e-02 -2.369141668472236548e-02 4.209349241562795191e-02 1.099450043739520939e-02 7.618410744769747722e-02 -4.879579885353306501e-02 -1.729295839000246915e-01 -1.043062310128996806e-01 6.602478513417132933e-02 2.779951123727819780e-03 -7.293994973839475204e-02 -1.860011157881083510e-01 -1.177804209614536496e-01 -3.609165644024688729e-02 -2.852960880270202434e-02 -8.127919773955612215e-02 -5.776526244810138710e-02 4.771111999876896312e-03 3.849672301115195094e-02 8.494168959731020208e-02 -2.252186192052167343e-02 1.068902897668275731e-01 -5.610819106963434166e-03 1.254596508472648753e-01 -4.870538680819471583e-02 -1.286556171276340976e-01 -2.624960336435380737e-02 1.380740672586328599e-01 7.294699503734608514e-02 7.744092231058546938e-02 1.221849062603165420e-01 -7.741560076963083237e-02 1.099997853851094470e-01 4.415342663468567463e-02 4.903144842459188774e-02 7.867508531097915092e-02 -4.249555153248924660e-02 2.639249531811881187e-03 -2.547682770286567588e-02 8.176667815637449210e-02 -4.922933461608001993e-02 -9.683420497378815439e-02 -9.113595116209390057e-02 -7.538926073678388351e-02 -2.548348884269181769e-02 -8.699607725045462037e-02 4.239318523500464064e-02 3.340704597658123581e-02 1.837357727146164688e-01 1.196660389546092829e-01 1.522712850000702833e-01 1.240487398241863493e-01 9.905900073967195685e-02 -2.402870531214236841e-02 9.673356048558959253e-02 -4.736688859799678686e-02 -1.032215648337516251e-01 -5.768318468270947769e-02 -1.100377475324834375e-01 -9.642077588728396875e-02 -9.431274080314334951e-02 2.938673880309182473e-03 8.163674357037045692e-02 -2.394587307099729084e-02 -3.870833326001037189e-02 -9.882397813801928332e-02 -1.157987348686555645e-01 8.563510033476792738e-02 1.959027752274547785e-01 1.449117290792492629e-01 1.940965031977122668e-01 1.087225722633846370e-01 1.021903183182526764e-01 1.071123184707396814e-01 -3.560585584607232901e-02 -7.030303982221686177e-02 9.998184946436879106e-02 -1.157862597706142693e-02 -4.881816026171828353e-03 1.905689350317577024e-02 9.874321277713374312e-02 4.698764632814454029e-02 1.464228532900196771e-02 -4.555478851610286761e-02 -1.092560940024779326e-01 -6.547668344328343160e-03 4.006062950547723683e-02 -4.123902494206816566e-02 1.751064774808333557e-02 1.448754158819493265e-01 5.922489250268353315e-03 6.353699659387208008e-03 1.130944228740209112e-01 1.295778249307995844e-01 2.434745300561039563e-02 -7.035492041834230659e-02 -1.032798034636634998e-01 8.813013029577489166e-02 7.087219072859257674e-02 1.028605297427109960e-01 -8.442377412593594921e-02 6.778026028801908964e-02 6.783321848723608549e-02 -2.035731304562650792e-02 -5.135204936957639063e-04 -5.016660458890603858e-02 -2.979034483357550361e-02 6.832945759125870488e-02 9.598626967920637076e-02 5.182814029146357027e-02 1.107311786785996621e-01 -2.678355287968542386e-02 -9.057368299533240241e-02 -4.017643466975070327e-02 2.749231096955540368e-02 -2.904840459364581295e-02 -6.286544579782195330e-02 1.024180437772113789e-01 4.543953302265047595e-02 -8.254300443642725860e-02 6.064753408477469715e-02 8.477376667924799158e-02 7.828683454991880453e-02 9.114884870630479696e-02 -6.876054951112925417e-02 8.883419375339150770e-02 -5.919100402770176295e-02 -9.595699586185418850e-02 -1.036501887374674247e-01 -2.418815018565692240e-02 9.452795262626713380e-02 8.919008313000087451e-02 7.469093270703081044e-02 1.001848065130810234e-01 -8.495863455221039362e-02 3.251438662225993037e-02 5.890782179055935666e-04 -4.274456024102006590e-02 -5.335733217716503302e-02 5.606869140767015841e-02
-9.045184737272777067e-03 -1.105627581842997531e-01 5.961348034979711830e-02 1.987127042565606933e-02 -1.023709712398226251e-01 -8.734012054251019674e-02 8.972070291347117310e-02 -9.660699330038620414e-02 7.082630373653546821e-03 5.045629792011672304e-02 4.313391474023230143e-02 4.549669523476394806e-02 -7.511169268238855612e-02 6.283196583594272133e-02 -7.867871601119021119e-02 -1.548556857117560932e-03 -4.752758977671892732e-02 7.254283628728781970e-03 -1.401088115713331611e-02 -9.379620274476238584e-02 -4.197052709745750093e-02 1.991464076156588409e-02 1.091767327032531903e-01 -7.835654956394601245e-02 -2.081873633378311314e-03 -7.455590889288520040e-02 9.586156761694072936e-02 1.041604810293198825e-02 -1.513953759809980731e-02 5.415047968309527615e-02 -6.150591413566658741e-03 -1.155179936556315241e-02 -9.825396266116261101e-02 -4.565843492281779908e-02 -8.997909166977817452e-02 5.221985353173537459e-02 -3.631186609015205069e-02 7.562130292772663298e-02 -7.925399960243557917e-02 -1.072233337704073600e-02 1.002975221346271567e-01 1.828664585362493183e-02 -6.238697496447587545e-03 5.541669492742915676e-02 3.193108855128385520e-02 -6.499186068735627111e-03 -5.240004501232322504e-02 -8.800795688934540117e-02 -1.750331163173653171e-02 -1.108142063417270756e-01 9.059704632425814863e-02 6.698694213254870189e-02 -7.603168937844632935e-02 2.440204220784009462e-02 -3.796667640751334727e-02 -8.670442350182130942e-02 -1.077957626712179179e-01 4.833666160364262498e-02 2.513576626491458021e-02 -8.057725127031575840e-02 -8.191835614683939948e-02 -9.687470778099487034e-02 -7.264164954882108838e-02 3.173616868701858995e-02 -6.038473026483655304e-02 -2.405973458452482019e-02 3.834621749208604047e-02 -7.763023895518595882e-03 -2.598152307147149828e-02 7.208741101347573843e-02 -7.187874447069921013e-02 -5.680685224562149332e-02 5.471949895041407913e-02 -6.726918018502999613e-03 -3.374440839365560468e-02 -7.937322139973257418e-02 -1.111610993377227033e-02 6.303110578172847756e-02 -1.712611464420687665e-02 -3.668585567596509278e-02 -4.036006926106843612e-02 1.058328614163127623e-01 -9.109511149606558389e-02 -1.432131914893866077e-02 9.325073267302801117e-02 9.149581009107921395e-03 1.951269231056391301e-02 -6.029610393736269808e-02 -1.064536437565263144e-01 2.096317473185519212e-02 5.494868155652852387e-02 -1.529644876364861794e-01 -8.412728456016227430e-02 -1.877912645309570416e-01 -9.987819264542044384e-02 1.992779119432865065e-02 -1.343474613344654463e-03 -1.171167821670751445e-02 -6.350525684860112985e-02 -5.067463127799675532e-02 -3.818732536225908497e-02 -4.232466253754917085e-02 -1.362984096277332531e-02 4.463290448234557423e-02 -8.437830935479218031e-02 5.652191749985329555e-02 2.727676784978241495e-02 -1.726764113260366440e-01 2.811260078855260316e-02 -5.466063841660011996e-02 7.102762600126767689e-02 -3.751804867131583454e-02 -3.078685968058040290e-01 -3.422960413147247971e-01 -2.963166875481011014e-02 3.054702788851611922e-02 3.958559716578908400e-02 -4.476767382267635847e-02 1.169626432325140547e-01 9.762478003848551467e-02 -7.354976460151355089e-02 -8.347151480555481395e-02 9.978148204715080877e-03 -1.135289157451143810e-01 -2.614235206713689738e-02 -4.262682356285923957e-02 -1.126965513175992306e-01 -1.190670110956163624e-02 2.537668754157285794e-02 1.958191982177252544e-01 1.600412974471616123e-01 1.639696988595178921e-04 -8.486465574439569504e-02 -2.988597191757716431e-01 -1.536136397541019161e-01 -1.854221266449521954e-01 -1.151581369993723639e-02 -8.907418405852976506e-02 3.873513571213701989e-02 4.408165852545910257e-02 -8.373396798301853405e-02 -2.200246852880133330e-02 4.288917129243197124e-02 -2.574744202190772449e-02 -1.484412257049187722e-01 -1.005365899524362783e-01 -3.045785968656287979e-02 -1.235915758751046645e-01 8.805779222338569467e-02 1.434762644076722771e-01 2.874179953869888671e-01 1.266204813666709783e-01 2.810189800037955071e-02 -1.195676238251818235e-01 -2.095239105882148178e-01 -9.709831968528234714e-02 5.274467457971608597e-02 1.311260203305040020e-02 5.378942091953979598e-02 1.140922991212330456e-01 -6.399152565193916287e-02 4.252436030401855749e-02 -1.443563117236320616e-02 2.059476872656706287e-02 -8.093722878844226976e-02 -3.502292404954129856e-02 -2.183526074634845396e-02 6.449809077318215123e-02 1.216859756393166569e-01 2.901544082285676396e-01 4.541670187121555902e-01 1.232384541277912332e-01 -9.612019735519066951e-03 -2.528174951416558014e-01 -2.116991520419451711e-01 -1.849952255692418335e-01 6.875235778018647104e-02 1.264079746961131387e-02 1.396866837097855141e-01 1.311109877922469469e-01 1.076162350077511654e-01 8.325467765469792003e-02 4.723558323579675478e-02 -4.425701246090536084e-02 -1.340929733480172303e-01 -1.773052920549363781e-02 8.873840555374183647e-02 8.266625018140845438e-02 4.100792885906592161e-02 3.565978888592606366e-01 2.531399525458599142e-01 2.416572541403593510e-01 -1.080511282626703540e-01 -2.382034213514741816e-01 -2.386424611607924906e-01 -1.315306136442367380e-01 9.675238076085493355e-02 2.090200903487877265e-02 6.629573820740497503e-02 7.811306212809797367e-02 6.129506855159719790e-03 6.801489757824186189e-03 1.217474184283502377e-03 -6.251358756181903120e-02 -1.168028802422497320e-01 -5.452674097142005613e-03 2.058459675368161379e-01 1.802568467281107645e-01 1.202997354951089587e-01 1.605984729629372221e-01 2.893603715750657779e-01 8.023781596341672540e-02 1.062740498316573634e-02 -1.497408673014855862e-01 -1.123269769952765958e-02 4.578868648941710612e-02 -7.340428747024474801e-04 9.199456210986435567e-02 7.305477967284015883e-02 1.235863785057312314e-01 2.628802657693593559e-02 -6.545609374017788071e-03 1.164889731941571027e-01 1.363302114357700136e-02 -1.821088013734291355e-01 -5.349770622353819394e-02 9.410309245105527576e-02 6.914321973424115975e-02 -3.304456733958668208e-02 1.151409605261705660e-01 6.482739159434736109e-02 2.066819942290523959e-01 5.518330619443959778e-02 -1.074412535567562527e-01 -6.311715482969773583e-02 2.203884787574127840e-02 7.682653999745860107e-03 1.035802402530411337e-01 8.394031485076695887e-02 3.163463267496220005e-02 3.525570609677523143e-02 -6.054842147052381246e-02 -7.874227785193288129e-03 -2.104129548896516502e-02 -2.648920534158565390e-03 -8.891976827800159369e-03 8.313336852802138965e-02 -1.172144098537547391e-01 -1.504266287894577558e-01 -1.346326126222667507e-01 9.427929279209963653e-02 3.013496063848123893e-02 4.437083363830559429e-02 6.734814294056959416e-02 -1.061160346780807562e-01 9.322707439804223117e-02 2.174277628502385012e-02 3.496101546667160220e-02 -5.220586050039363601e-02 3.057077638330433708e-02 -2.685335906795287622e-02 -1.196227820853128058e-02 1.251603567094090042e-01 2.759394026018788942e-02 -3.905134284335549932e-02 -1.638141201058969099e-01 -8.432068823374664485e-03 -1.172964596180421926e-01 -1.576913830235242842e-01 -2.324963973453970656e-01 -9.973233340889645082e-02 9.054540433556995671e-02 1.091666497502700867e-01 5.018489070776035316e-03 -1.947610012961218870e-02 1.180351323154318205e-01 -5.566962483891295388e-02 7.254536099577560404e-02 1.426338908546960493e-01 -1.575451526684810630e-03 4.415978857697996918e-02 3.547032789490424387e-02 2.279529159237147010e-02 9.400759605988273648e-02 7.038853869837473354e-02 6.470352755768877129e-04 -1.132192847433992205e-01 -1.723188485949606885e-01 -1.557167951425662555e-01 -3.545809639491734888e-01 -2.994220291355204761e-02 -1.375981214438949662e-01 -4.574213580410230878e-02 -1.131826296121816872e-01 7.889181087491337063e-02 -5.497093375551020261e-02 -6.951773567789734654e-02 -5.819539935165742722e-02 1.355267494480597024e-01 -4.358676545029663979e-02 -1.652758477001520362e-03 -9.741085388056881789e-02 1.861425577225621006e-02 -8.026085490317985682e-02 2.811233491253546310e-02 5.215686111283220766e-02 -5.884983565288949559e-02 -7.684630148295965024e-02 -1.829846078814208465e-01 -2.532101775492979212e-01 -2.196835787968552944e-01 -2.588354556928035982e-02 -4.986814675780300993e-02 4.594848838623318693e-02 -1.016781418705948181e-01 -1.465490933623675718e-01 -8.874534516108151250e-02 -6.134486413213975642e-02 1.055688897861354891e-01 -3.751322014453049164e-02 -2.655284769722793606e-02 3.264669217352435260e-02 6.369316713512644668e-02 5.311247342327585219e-02 9.362164998327138221e-02 -6.362373435674490568e-03 2.060818917352406632e-01 -1.269615141830411804e-02 -4.317301713524856338e-02 -2.302011051263325864e-02 -2.090715692989397745e-01 -9.951262857461699862e-02 -1.856297119698029352e-01 -1.791062402452780478e-01 -1.485506661918440004e-02 -2.410399645677199429e-02 -2.384253246218094591e-02 6.453989347816510569e-02 -6.664477775850677355e-02 -1.115815450960898000e-02 -6.660532396613468020e-03 4.202775654117300863e-02 3.788523248158538054e-02 8.012954736504686315e-02 8.752365297090369811e-02 1.253036499337532687e-02 1.759095730230467169e-01 1.602647648926231738e-01 -2.293389843102685080e-02 -8.773321369594119790e-02 2.475806111641254761e-02 -4.032829851493963808e-02 -1.291937581318337858e-01 1.241863502699253920e-02 -1.571030801618802930e-01 -9.131649542612585435e-02 7.471386982165950652e-02 -1.647825342583307540e-02 -8.651746720634824472e-02 -2.912328630960325793e-02 1.123945446768970062e-02 -9.327171478984315478e-02 -3.930386467611763496e-02 3.294204007277158619e-02 -6.955588790129138554e-02 -5.169391377675962296e-02 7.651788297126112248e-02 3.061411653344358122e-02 3.331911285853285387e-02 -7.787902416436447151e-02 5.675215068140627289e-02 -5.120781863294830011e-02 5.130636709270715301e-02 2.493644922460902871e-02 6.440044079330083104e-02 4.758275481954966912e-02 -1.381410021720445858e-02 -9.010258074339574930e-02 6.045987842807874768e-02 7.092599328997974129e-02 -2.567088470904460573e-02 4.411680074227873616e-02 -1.101369702938572587e-01 -1.085392358178915301e-01 -2.191231569870922408e-02 -8.469325443861257241e-02 4.329079466918489549e-02 3.131706788166002675e-02 -4.714145878102035669e-02 -3.859526544929047648e-02 6.245725296114550129e-03 1.055187733069187228e-01 -2.883124908270078696e-02 -9.856260352752556353e-02 5.576868203263447149e-02 -1.874699477462793071e-02 -3.481359303620697176e-02 2.589500018552492663e-02 2.942577984843251782e-02 7.521314108697770007e-02 3.372729181306929197e-03
